he 0.085181 0.50892 -0.08828 -0.39785 0.25251 0.057932 -0.15804 -0.40127 -0.13023 3.9609 -0.1579 0.40404 -0.29674 -0.17273 -0.42699 0.20168 0.16489 -0.027982 0.076168 0.049308 0.32306 0.045925 -0.09013 -0.094453 0.042531 -0.17858 0.043216 -0.13998 -0.061144 -0.40905 -0.60096 0.10798 -0.17421 -0.069579 -0.12241 -0.29401 -0.21665 -0.15557 -0.1901 0.12889 0.12175 -0.063826 0.41555 -0.26567 0.26044 0.11329 -0.25144 -0.15775 -0.15733 0.14483 0.055324 0.0066655 -0.091495 0.12651 0.026622 0.21174 0.047914 0.1641 0.24683 -0.47167 -0.23645 -0.012938 0.1756 0.4016 -0.17476 -0.13261 0.12886 -0.034884 -0.014946 0.28423 -0.21608 -0.19089 0.029524 -0.31676 -0.67708 -0.11262 0.34284 -0.30276 -0.14569 0.24657 0.030169 0.086506 -0.40713 0.047266 0.0007027 -0.33015 -0.019443 -0.83622 -0.029324 0.053749 0.24284 -0.44417 -0.19464 0.037608 0.12643 -0.35244 0.22273 -0.29976 -0.34612 -0.022161 -0.055289 0.39889 -0.28824 -0.11108 -0.16336 -0.83125 -0.049992 0.1339 -0.16723 -0.068773 0.33489 0.12471 -0.084336 -0.1898 0.24603 -0.014407 0.21958 -0.13562 0.084496 -0.33063 0.2118 0.050421 0.22248 0.30132 -0.15447 0.1655 -0.32041 -0.39191 0.080406 -0.22948 -0.037016 0.26675 0.13814 -0.13795 0.43944 0.17387 0.1673 0.21822 -0.18174 -0.12796 -2.1523 0.1781 0.19361 0.45157 -0.020029 -0.037275 -0.0089297 -0.1898 -0.057187 -0.34364 -0.017064 -0.04066 0.073974 0.026471 0.17681 -0.10092 -0.37553 -0.057593 0.021374 -0.054304 -0.024173 -0.23043 -0.17166 -0.21861 -0.060349 -0.2402 -0.26399 -0.10591 0.12977 0.075168 -0.50757 -0.12076 -0.33975 -0.51166 -0.27622 0.11779 0.059112 0.31809 -0.2297 -0.317 -0.025549 -0.19291 -0.052554 -0.061438 -0.2724 0.2932 0.11885 0.026454 0.16472 -0.044768 0.021802 0.25638 -0.3715 0.32551 -0.031645 0.1877 0.022595 -0.32523 -0.28095 0.11149 -0.089651 0.13678 -0.38911 -0.094405 0.16541 0.020785 0.20175 -0.53977 0.033101 0.012575 -0.11927 -0.23156 -0.19446 0.041929 0.54304 0.067994 -0.21183 -0.04437 0.0078327 -0.20753 0.12649 -0.052417 -0.0044998 0.26063 -0.086702 0.51573 0.21059 0.34076 0.085528 0.32066 0.020418 0.11094 0.011949 -0.25745 -0.48692 -0.088578 0.17232 0.095417 -0.40883 0.20328 -0.014085 0.17956 -0.16762 0.24308 0.26146 -0.13116 0.12008 -0.33953 -0.13146 0.37541 0.14515 -0.31653 -0.088491 -0.019506 0.43085 -0.22265 0.0017267 -0.060823 0.042361 -0.097182 0.33696 0.3918 -0.11744 0.012984 0.42419 0.41924 -0.3085 -0.14577 0.038206 0.28069 0.59899 -0.087028 -0.0071838 -0.15558 -0.17385 0.35186 0.02163 0.0076356 0.12767 0.091347 0.13536 0.2689 -0.26521 -0.079966 0.037699 -0.037475 0.17898 0.3082 -0.046165 0.013944 0.1316 -0.092962 -0.17842 -0.1175 0.31549 -0.21192 0.13665 0.43679 0.29784 -0.08815
his 0.019097 0.23119 -0.1681 0.1299 0.34298 0.054346 -0.193 -0.39108 -0.11816 3.6969 -0.1359 0.48132 -0.31348 -0.086658 -0.047411 0.29327 0.081209 -0.01393 -0.047363 0.022951 0.13957 -0.012843 -0.27575 -0.26208 0.49145 -0.29277 0.24399 0.051977 -0.24561 0.1647 -0.21138 0.3395 -0.54664 0.062185 0.045595 -0.42418 -0.23868 -0.16244 0.3538 -0.057772 0.047131 -0.16672 0.031878 -0.25485 0.21397 0.018831 0.19238 0.18254 0.22167 0.13064 0.071213 -0.064769 -0.34915 0.11562 -0.25776 0.34391 -0.088669 0.24822 0.2507 -0.55179 0.070894 0.16544 0.21273 0.5657 0.28545 -0.066029 0.13896 -0.31923 0.10216 0.26524 -0.2364 -0.30426 -0.067546 -0.19784 -0.5603 0.08329 0.3411 -0.38045 -0.23821 0.051962 -0.34766 0.25132 -0.00184 -0.020256 0.1518 -0.16603 -0.45404 -0.47889 0.050912 0.012528 -0.36475 -0.11135 -0.059117 -0.015756 0.043632 -0.16474 0.27406 -0.08087 -0.21297 -0.2613 -0.23055 0.12365 0.082552 -0.42532 -0.34247 -0.88777 0.44535 0.39312 0.26877 -0.092563 0.22777 0.32901 0.04493 -0.011925 -0.092362 0.044595 0.10541 -0.18676 0.61788 0.26301 0.37003 0.30849 -0.097231 0.55687 -0.19455 0.14792 -0.73614 0.026518 -0.1292 -0.25024 -0.16509 0.097476 -0.056726 -0.28706 0.10363 0.34255 0.3814 0.40617 -0.22332 -0.00014778 -2.2253 -0.12643 -0.011528 0.5785 -0.076107 0.24784 0.12531 -0.076544 0.23726 0.11189 0.21375 0.1853 0.071369 -0.079191 -0.060409 0.18212 -0.60307 0.12975 -0.24996 -0.39416 -0.10352 -0.24983 0.17901 -0.12997 -0.23443 -0.50287 -0.051313 0.090903 0.56822 -0.025648 -0.44339 -0.16675 -0.072652 -0.19596 -0.20319 -0.024084 0.12604 0.23229 0.075406 -0.041481 0.16584 -0.31138 0.32694 0.072618 -0.0091475 0.54069 -0.006937 0.10428 -0.21754 -0.23888 -0.34571 0.23972 -0.46692 0.24636 -0.39442 0.5992 -0.020987 -0.011342 -0.43642 0.039497 -0.30919 0.086746 -0.37578 0.051423 0.15935 0.089894 0.26303 -0.5538 -0.47721 -0.20628 -0.14281 -0.2202 0.1189 -0.12618 -0.052833 0.49917 0.16147 -0.2831 0.21762 -0.037605 0.10189 -0.32265 -0.36144 0.27151 -0.33202 0.16495 -0.042866 0.48988 0.12252 0.53299 0.015835 0.058957 -0.37527 -0.15706 -0.55369 -0.088411 -0.099721 0.4108 -0.062482 0.033457 -0.010939 0.28916 -0.2473 0.23025 0.46826 -0.18276 0.089062 -0.47639 -0.23856 0.034902 -0.063315 -0.18349 -0.016027 0.0036618 0.37083 0.41771 -0.028555 0.0099633 0.13393 0.11019 -0.16879 0.36534 0.23581 0.045225 0.3483 0.27448 -0.4012 -0.1421 -0.30821 -0.44956 0.92881 0.175 -0.096459 -0.34435 -0.0026293 0.11825 0.074184 0.073415 0.11217 0.0062208 0.0036677 0.39164 -0.23359 0.14927 -0.0070295 -0.083377 0.00030973 0.060281 -0.10553 -0.22306 0.071336 0.021303 0.15444 0.25056 0.14349 0.016671 0.54051 0.52329 0.14751 -0.16854
her 0.14203 0.095083 -0.2681 0.64799 0.1003 -0.10372 -0.18631 -0.39495 -0.27631 3.5805 -0.22571 0.40361 -0.20724 -0.59845 -0.12511 0.35779 -0.10136 0.33431 -0.31682 0.064417 0.3613 0.18816 -0.48276 -0.10532 0.41807 0.040849 0.37186 -0.27101 -0.17064 -0.23549 0.017497 0.40615 -0.14229 0.18666 0.5354 -0.40044 0.0069591 0.084148 0.25842 -0.4082 0.40663 -0.10519 -0.26206 -0.35436 0.070099 0.0035294 -0.25313 -0.082061 0.41734 -0.17676 -0.31574 -0.10688 -0.7529 -0.0010077 -0.143 0.51165 -0.091469 0.10039 -0.11142 -0.11223 0.19849 -0.25771 0.21431 -0.018471 0.14766 0.0463 0.40008 0.06249 0.63622 0.39526 0.012281 -0.17483 -0.069867 -0.08063 -0.11727 0.49144 0.25489 -0.21347 -0.18531 -0.51306 -0.20675 -0.037086 -0.6316 0.15427 0.22019 -0.18292 0.22593 0.080103 0.20609 0.30699 -0.49378 0.32829 -0.099528 -0.091307 -0.084978 0.031801 0.27065 0.30617 -0.42923 -0.23841 0.095935 0.081097 -0.017047 -0.78375 -0.29713 -0.73728 0.00036037 0.0019067 -0.25462 -0.33015 0.11265 0.3648 0.35872 -0.078303 0.055269 -0.58441 -0.040114 0.18506 0.81571 0.44131 0.12556 0.37335 0.16161 0.2064 -0.075675 0.34905 -0.46669 0.0077374 -0.13134 -0.065716 -0.54933 -0.13646 -0.17652 0.068761 0.3511 0.1587 -0.27992 0.56466 -0.11472 0.10545 -2.5771 -0.3337 0.055038 0.25667 -0.45768 0.016242 -0.49171 0.11585 -0.33712 0.29592 -0.17834 0.57812 0.1437 0.1542 -0.041586 -0.16845 -0.20289 -0.30027 -0.014633 -0.47493 -0.56671 -0.2182 0.32061 0.043146 -0.15268 -0.27605 0.063165 0.12511 0.6422 0.002544 -0.14427 -0.43241 0.38297 0.18417 0.045082 0.11385 -0.30889 0.15597 -0.72818 0.56328 0.12527 -0.26129 0.18473 0.222 0.23877 0.44254 -0.38414 0.097059 -0.21169 0.043147 -0.14631 -0.27682 -0.23522 -0.042336 -0.31685 0.35669 -0.010954 -0.005098 -0.12859 0.12641 -0.47281 0.087276 -0.50734 0.2086 0.082159 0.30781 0.14324 0.069251 -0.040544 -0.30906 -0.53329 -0.45703 -0.32159 -0.15564 0.030593 0.38243 -0.295 -0.60723 0.45583 0.084389 -0.13763 -0.32806 -0.38447 -0.206 -0.39367 0.13364 0.18127 0.02524 0.25427 0.027058 -0.13718 -0.23335 0.012087 0.13239 -0.33532 -0.30001 -0.046791 0.41569 0.15006 -0.19502 -0.44454 0.22026 -0.09401 0.16362 0.7375 -0.70541 -0.30921 -0.24662 0.012986 0.37083 -0.26251 -0.02452 0.0083748 -0.20278 0.06549 0.55194 0.16988 0.19903 -0.095458 0.39585 -0.34347 0.56639 0.014304 -0.046342 0.19949 0.11752 -0.23484 -0.1684 -0.78168 -0.68917 0.059307 0.087445 -0.39578 -0.13946 -0.0022423 0.25092 -0.31497 0.13019 0.197 0.4475 0.3188 0.49266 0.245 -0.41649 -0.3681 -0.036134 0.11484 0.27126 0.13552 -0.10914 0.35448 0.1136 0.47157 0.034464 0.16688 -0.18723 0.32176 0.13736 0.1574 -0.35329
she 0.23648 0.39091 -0.095802 0.0536 -0.039457 0.094117 -0.12456 -0.50161 -0.14399 3.7937 -0.28044 0.37629 -0.29771 -0.56942 -0.36474 0.22409 -0.063741 0.21193 -0.16735 0.048669 0.37831 0.19195 -0.36577 -0.11163 0.12824 0.089515 0.23948 -0.52146 -0.015675 -0.70829 -0.31049 0.16549 0.053029 0.022021 0.19757 -0.18856 -0.032634 0.031256 -0.19396 -0.08182 0.52846 -0.018037 0.14249 -0.34511 0.25475 0.12421 -0.47642 -0.4492 0.12055 -0.17226 -0.24445 -0.13038 -0.43177 0.11756 0.092297 0.21453 0.083176 0.057525 0.016724 -0.18986 -0.0031624 -0.34302 0.21237 -0.02516 -0.36198 -0.11523 0.29333 0.25896 0.38249 0.38591 -0.0065044 -0.16543 -0.034083 -0.13847 -0.29444 0.27342 0.16766 -0.092506 -0.094532 -0.24282 0.10217 -0.041171 -0.82787 0.248 0.0030007 -0.43087 0.35627 -0.27656 0.069875 0.24098 0.040551 0.056133 -0.21126 -0.11868 0.0082464 -0.23617 0.20432 0.1005 -0.49437 -0.073594 0.30427 0.3616 -0.35379 -0.44024 -0.24304 -0.68165 -0.38985 -0.14893 -0.45392 -0.3297 0.20681 0.23817 0.21954 -0.23551 0.34325 -0.58516 0.098342 0.21092 0.39674 -0.17926 -0.063398 0.13078 0.40762 -0.019661 0.026038 0.35678 -0.097277 -0.4082 0.068257 -0.040618 -0.29166 0.030419 0.083588 0.17138 0.71912 -0.038221 -0.3981 0.39231 -0.13461 0.052697 -2.3752 -0.067489 0.26023 0.23818 -0.38627 -0.18092 -0.65867 0.089944 -0.56882 -0.14571 -0.28887 0.23164 0.066237 0.22398 0.25642 -0.43321 -0.055563 -0.54625 0.12619 -0.1838 -0.4845 -0.18365 -0.12079 -0.092315 -0.057859 -0.099478 -0.21365 -0.041727 0.20577 0.079424 -0.16831 -0.37153 0.029491 -0.24533 -0.299 0.13846 -0.22337 0.16949 -0.90284 0.25299 -0.040617 -0.18202 -0.17517 0.15056 -0.038543 0.32468 -0.11842 0.033245 0.036311 0.16812 0.023477 -0.16463 -0.20335 -0.013488 -0.045034 0.062248 0.03846 -0.37167 -0.0023849 0.12475 -0.26254 0.073882 -0.45395 0.043994 0.0055138 0.25824 0.025715 -0.091632 0.31607 -0.19837 -0.42083 -0.35787 -0.66647 -0.022 0.54709 0.057402 -0.61062 -0.39224 0.13075 -0.17253 -0.10591 -0.10769 0.0047984 -0.16061 -0.19112 0.48681 0.46962 0.0075983 0.20464 -0.049686 -0.12427 -0.039271 0.30294 -0.01749 -0.26808 -0.22002 0.20925 -0.0060097 -0.14864 0.07531 -0.54154 0.096781 -0.14249 0.096474 0.48381 -0.49957 -0.18211 -0.15281 0.12151 0.42444 -0.079506 -0.15519 0.044687 -0.24654 0.13382 -0.11883 0.13273 0.10772 -0.069447 0.26972 0.080538 0.4971 -0.27235 -0.085932 0.27508 0.32213 -0.2234 -0.13926 -0.38169 0.03093 -0.18407 -0.24959 -0.41713 -0.040768 -0.065943 0.3165 -0.29719 -0.033519 0.15297 0.46593 0.45246 0.4003 0.15039 -0.57263 -0.22627 0.051202 0.14107 0.52854 0.12376 0.10616 0.42186 0.025461 0.18399 -0.22025 0.36805 -0.28949 0.0068463 0.13228 0.36417 -0.28676
him -0.22306 0.15456 -0.32132 0.052292 0.28417 -0.29661 -0.32371 -0.36878 -0.25365 3.7652 -0.11085 0.48548 -0.25184 -0.2527 -0.42596 0.10629 0.052355 -0.14333 -0.025008 0.134 0.33053 0.13886 -0.35211 0.07773 0.062132 -0.20601 0.082977 -0.2347 0.080805 -0.3882 -0.52629 0.36848 -0.3911 -0.0022834 0.071524 -0.58486 -0.20482 0.044224 0.17098 -0.039935 0.001344 -0.13704 -0.16892 -0.30519 0.11237 -0.00025637 -0.13917 0.14411 -0.28211 0.020311 -0.065456 0.17922 -0.049518 -0.10274 0.1673 0.53405 -0.34871 0.22221 -0.015578 -0.13044 -0.2203 0.097483 0.057234 0.0040331 0.32412 0.25199 0.031132 -0.18735 0.18517 0.25661 -0.18994 -0.05188 0.12 -0.40882 -0.38423 0.18373 0.64393 -0.70559 -0.074608 0.026187 -0.11744 0.067247 -0.53108 -0.06023 0.21037 -0.21155 0.45649 -0.90596 0.18939 0.14426 -0.21863 -0.3508 -0.26677 -0.1468 -0.038687 -0.30669 0.19732 -0.59404 -0.19539 0.0045206 -0.12695 0.35892 -0.10651 -0.49758 0.20024 -0.83122 0.40109 0.22606 -0.08959 0.052459 0.53665 0.029252 0.25838 0.047099 0.15364 0.17054 0.018538 -0.2722 0.35455 0.35773 0.3649 -0.036237 0.19683 0.37167 -0.039956 -0.034221 -0.49092 0.086982 -0.044145 -0.022101 -0.50152 0.097767 -0.22283 -0.29911 -0.042536 0.26498 0.37378 0.19168 -0.026335 -0.20665 -2.637 0.31347 -0.0036927 0.22048 0.13499 0.036918 0.32085 -0.17649 0.12113 -0.22601 -0.04159 0.38249 0.095128 -0.32967 0.029977 0.04382 -0.23562 0.067563 -0.043595 -0.15191 -0.19604 -0.33944 0.0060672 -0.17103 0.1813 -0.35053 -0.11285 -0.073525 0.12232 0.0095868 -0.37593 -0.2028 0.08366 -0.32471 0.14909 0.15435 -0.090234 0.2779 -0.20904 -0.44035 0.16984 -0.20672 0.24154 0.056918 0.19617 0.16371 -0.30046 -0.067835 0.29956 -0.0019424 0.046339 0.003075 -0.4055 0.27927 -0.04699 0.45953 -0.10759 -0.16019 -0.11682 0.10289 -0.086415 0.10892 -0.30544 -0.15413 0.17867 0.24406 0.47573 -0.24413 -0.12762 0.076508 -0.041017 -0.32204 0.02105 0.004811 0.17794 0.38525 0.090658 -0.17073 0.13711 0.22855 0.40446 -0.096627 -0.26111 0.1089 -0.2572 0.27437 -0.18338 0.37776 0.080223 0.10079 -0.16775 0.0089952 -0.069595 0.021519 -0.46096 -0.43186 0.26839 0.26947 -0.13648 -0.041154 0.0087522 0.38699 -0.13146 0.35118 0.44605 -0.29005 0.039934 -0.18364 -0.33044 0.2607 0.28177 -0.093192 -0.32894 0.083203 0.36909 0.42322 0.27413 -0.095224 -0.12378 0.10291 0.0098944 0.48961 -0.043888 -0.071289 0.45309 0.30347 -0.10646 0.032177 -0.21362 0.0015388 0.99196 0.2745 0.28462 -0.049137 -0.13135 0.51733 0.30264 0.18754 -0.041998 0.22928 -0.0098404 0.2701 0.0095057 0.016225 0.11387 -0.11383 0.50302 -0.10879 0.0020011 -0.019809 0.16008 -0.10876 -0.071847 -0.017953 -0.095296 0.043064 0.15263 0.39172 0.26328 0.017614
love 0.13949 0.53453 -0.25247 -0.12565 0.048748 0.15244 0.19906 -0.06597 0.12883 2.0559 -0.44339 -0.10174 0.27118 -0.12429 -0.45753 0.055878 -0.30395 0.79543 -0.2906 0.51908 0.16909 -0.32743 0.20606 -0.083885 0.19696 0.32847 0.087838 -0.12784 0.30979 0.20692 -0.085855 0.5479 -0.42344 0.34573 0.22921 -0.21538 0.091481 -0.27801 -0.34183 -0.13067 -0.24061 0.25755 0.13109 0.32772 0.20634 0.29093 -0.4216 0.48984 0.24333 0.037458 -0.16604 -0.17116 -0.1662 -0.31993 0.54011 0.26113 -0.52505 -0.13453 -0.12183 -0.038383 0.13733 -0.35703 -0.70702 0.045393 -0.080799 -0.037749 0.021431 0.22084 -0.073788 -0.26571 -0.25704 0.13375 -0.20073 0.12515 0.10129 0.2928 -0.057409 0.094001 0.021467 -0.16589 0.28369 0.2415 0.12153 -0.21843 0.31459 -0.56409 0.032922 -0.27864 0.29464 -0.22066 -0.097385 0.048704 -0.2443 0.30807 0.1167 0.38387 0.13172 0.17848 -0.39812 -0.3939 0.25316 -0.15681 -0.17198 -0.11697 0.20308 0.058334 0.032858 0.065567 -0.025386 -0.019887 0.2489 0.072835 0.0011936 -0.39003 0.18767 -0.16083 -0.028072 0.23153 0.27805 -0.014002 0.028585 -0.34755 0.1415 0.053722 0.71957 0.39155 0.028079 -0.038999 0.058233 0.04528 -0.43391 -0.15049 -0.39168 -0.0053075 0.0014706 0.017932 -0.27675 -0.23026 -0.044797 -0.11469 -3.2899 0.036923 0.36969 0.052848 -0.53959 -0.22668 -0.11084 0.27184 -0.27381 -0.39751 -0.15191 0.40173 0.25833 0.10584 0.039291 -0.14396 -0.16432 -0.64371 -0.3486 -0.24962 0.054873 0.3909 -0.10165 0.0016311 0.17129 0.21923 0.35316 -0.4935 0.093036 0.1298 -0.11907 -0.1133 0.60814 -0.37138 0.47935 0.20217 -0.27977 0.073912 0.12773 -0.36454 0.21015 -0.36394 0.15769 -0.17778 -0.13651 0.0394 -0.536 -0.42339 -0.044968 -0.16835 -0.088618 -0.26202 -0.13446 -0.56185 -0.014444 0.145 -0.04111 -0.37047 0.18296 0.468 -0.3303 -0.21653 0.014545 -0.097622 0.30537 -0.15802 0.13984 0.22848 -0.08337 -0.040741 -0.45021 -0.079202 -0.00894 -0.50169 -0.13536 0.31606 0.33749 -0.25901 0.26496 0.14153 0.11648 0.19042 -0.0036783 0.30213 -0.072898 0.061077 0.29146 0.13043 0.102 -0.10795 -0.51278 0.14385 -0.52894 0.062404 -0.1509 -0.23326 -0.20287 -0.093445 -0.011326 0.22487 0.13957 -0.014241 -0.018765 0.38323 0.064715 -0.10319 -0.66647 -0.10057 0.077504 0.37604 0.24435 0.05035 -0.39705 -0.11248 -0.14296 0.33583 0.17513 -0.050436 -0.13719 0.055704 0.055732 0.31925 -0.26293 0.30683 0.094407 0.3444 0.30324 0.41765 -0.10427 0.4185 -0.67893 -0.16072 -0.82023 -0.014762 -0.091018 -0.0089553 -0.026122 -0.13455 0.19263 0.33113 -0.15297 -0.36822 -0.14649 -0.31547 0.13963 0.29885 0.67198 0.22049 -0.18279 -0.24811 -0.12438 0.17844 -0.099469 0.0086822 0.089213 -0.075513 -0.049069 -0.015228 0.088408 0.30217
family -0.012915 0.37364 -0.13332 -0.28754 0.34285 -0.13437 0.31249 -0.46877 0.21565 3.2295 -0.60759 0.008392 0.20983 0.07127 -0.33174 -0.094412 0.18584 0.92464 -0.096517 0.3251 -0.32978 -0.44535 -0.19465 0.61653 0.35656 0.23991 0.023272 -0.0056761 -0.40104 0.10889 0.14322 -0.25958 0.19049 -0.048593 0.3117 0.14619 0.42143 -0.33318 -0.23139 0.33957 0.18446 -0.069072 -0.034697 0.39787 0.31212 0.16392 0.22275 -0.55881 0.90957 0.56981 -0.30839 -0.55751 0.2697 0.42272 0.13441 0.043661 -0.32969 0.35517 -0.17976 0.32357 0.7668 0.44923 -0.009315 0.27116 -0.019999 -0.19384 -0.40713 0.61171 0.026768 0.10776 0.038864 0.30081 -0.46167 0.028184 0.2719 0.0165 0.3411 0.037714 0.27917 -0.2292 0.27357 0.48887 -0.2164 -0.088514 0.2501 -0.053824 -0.26612 -0.2558 0.67827 -0.01708 -0.4715 0.7063 -0.11441 -0.063951 -0.066221 -0.14912 -0.23585 0.0016436 0.29966 0.063799 -0.16305 0.1039 0.11411 -0.015701 -0.1639 -0.5748 0.53179 0.16553 0.17352 -0.052326 0.19145 0.61443 -0.28908 0.15707 0.10432 -0.46177 0.10873 0.017484 0.24907 0.29331 -0.24475 -0.23587 0.061943 -0.50885 0.26354 0.27505 0.11891 -0.63304 0.032903 -0.18007 -0.16546 0.35532 -0.31508 -0.1267 -0.44512 -0.41261 -0.018702 0.11607 0.088905 0.46327 -1.0943 -0.52057 0.28967 0.27642 -0.48415 0.14251 -0.41909 0.049144 0.23235 -0.25545 -0.23363 0.40964 0.25269 -0.035397 0.055025 -0.01912 0.47061 -0.0037647 -0.19984 -0.44163 0.11137 0.0070371 -0.099708 -0.26599 0.36623 -0.30737 0.20532 -0.25539 0.738 -0.14372 -0.15177 0.2087 0.19895 0.74802 -0.30085 -0.47795 -0.33736 -0.096518 0.077442 0.071109 0.12901 -0.4894 0.13566 0.27888 0.070616 -0.13539 0.0098341 -0.10204 -0.45962 -0.28689 -0.75236 -0.046523 -0.34242 0.028467 0.065694 0.31724 -0.12947 -0.29666 0.23819 0.18218 -0.32881 -0.35064 0.3522 -0.30338 0.027287 -0.00096586 0.11985 0.2748 -0.5695 -0.44809 -0.87168 0.43277 0.13849 0.33947 0.10876 -0.46341 0.64621 0.021731 -0.052799 0.080196 0.0047035 -0.36527 0.12008 0.42333 -0.29899 0.10917 -0.28959 0.13482 -0.31021 0.23182 -0.51991 -0.42218 -0.097269 0.50212 0.20288 -0.17373 -0.15953 -0.12366 0.33349 0.13642 -0.3128 0.2854 0.39363 0.42642 0.169 -0.015048 -0.35797 -0.074418 -0.1635 -0.25843 0.72654 0.35199 0.010222 -0.085916 0.2842 -0.052945 -0.13079 -0.29727 -0.23161 -0.087496 -0.67446 0.16051 0.12182 0.10235 -0.25236 -0.074293 -0.11251 -0.067368 -0.53673 0.10827 -0.32336 -0.037511 -0.51284 -0.32566 -0.30596 0.17299 -0.36574 0.28095 -0.52343 0.14988 0.14183 0.20204 -0.30628 0.16899 0.17395 0.71511 0.21232 0.34286 -0.55915 -0.013525 -0.4698 -0.10413 -0.30038 0.29717 0.15169 0.11328 0.11281 -0.3807 -0.062887 -0.22051
read 0.068879 0.2597 -0.2746 0.084049 0.11746 0.56099 0.27402 -0.43173 0.20566 1.9462 -0.44414 0.34648 0.034651 -0.12478 -0.65381 -0.193 -0.088177 0.94849 -0.49506 -0.092329 0.077658 -0.14359 0.5516 -0.3612 0.18054 -0.058189 -0.037947 -0.37905 -0.073899 0.0084599 -0.12024 0.18178 0.19872 -0.41881 0.011728 -0.0052939 0.13363 0.44671 -0.10553 -0.2452 -0.19776 -0.17707 -0.027823 -0.4464 -0.0089824 -0.086984 -0.072377 0.6127 0.37412 -0.18642 -0.42415 -0.25204 0.05317 -0.14102 -0.15985 -0.31265 -0.045672 -0.55067 0.035011 -0.32005 -0.077206 0.0074557 -0.37655 0.19074 0.51616 0.12245 0.12636 -0.085699 0.26373 0.73464 0.50602 -0.49447 0.6677 -0.37974 0.41143 0.16279 -0.045956 -0.20482 -0.2866 0.66041 0.24113 -0.16718 0.080577 -0.38902 0.24871 -0.45691 0.062813 -0.66658 0.46288 0.30786 -0.72844 -0.42934 -0.30111 0.37874 0.018183 -0.20995 0.16899 -0.075056 0.47209 -0.62196 0.1842 -0.32932 0.050563 0.045375 0.17971 -0.053498 0.23871 -0.12824 -0.25698 -0.11854 0.38167 0.030933 0.56425 0.14614 -0.13971 -0.25355 -0.93943 0.031944 -0.090748 -0.19204 0.15408 -0.44622 0.029104 0.28464 0.45828 0.25678 -0.49113 -0.17846 0.0424 -0.28434 -0.39494 -0.2402 -0.46202 0.30899 -0.18221 -0.017729 -0.054754 0.10934 -0.28234 -0.20338 -1.2709 -0.16914 -0.097166 -0.30445 0.010762 -0.39693 -0.15174 -0.1474 -0.20312 -0.25461 -0.064943 0.19423 0.074308 -0.025577 -0.3202 -0.35056 0.05444 -0.036091 0.27154 -0.25062 -0.068498 0.21889 0.12106 0.039058 -0.45678 0.12611 -0.046822 -0.25286 0.057852 -0.11678 -0.050285 -0.19096 0.38905 -0.55821 0.15602 0.050181 0.12376 -0.28316 -0.13131 0.053635 0.039953 -0.086471 0.026669 -0.42932 0.25374 -0.039344 0.080898 0.080789 0.18262 0.32722 -0.28135 0.076695 -0.36521 0.21803 -0.14677 -0.11064 -0.12215 -0.36403 0.16146 -0.18389 -0.094726 -0.3606 -0.0019836 -0.329 0.17365 0.10499 0.50652 -0.23095 -0.35416 0.038884 0.06876 -0.24356 -0.20366 -0.77349 0.097048 -0.03724 0.10965 0.055281 -0.28306 -0.042037 0.12171 -0.43887 0.50581 0.56969 -0.13483 -0.0076519 -0.20436 -0.30618 0.20688 -0.00066062 0.053816 0.24972 -0.14231 0.51881 -0.33823 0.018901 0.13205 -0.14552 -0.14464 -0.055646 -0.056241 -0.23527 0.25065 -0.20387 0.078032 -0.13376 0.11171 0.27639 -0.18745 0.038703 -0.01986 -0.41501 -0.1829 0.25105 0.3803 0.52124 0.053811 -0.14223 -0.22733 0.046524 0.31666 -0.066089 -0.17598 0.60248 0.72948 -0.16004 0.048641 0.24581 0.69151 -0.016935 -0.43856 -0.16697 -0.10063 0.082339 -0.26972 0.61965 -0.15849 -0.076047 -0.24441 0.099114 -0.13762 -0.04068 0.32782 -0.53837 -0.18376 -0.061035 0.098814 0.022543 -0.0043714 0.14317 -0.39947 -0.16171 -0.12191 -0.11313 0.38517 -0.17759 -0.031033 -0.3656 0.20514 -0.069834
man -0.1731 0.20663 0.016543 -0.31026 0.019719 0.27791 0.12283 -0.26328 0.12522 3.1894 -0.16291 -0.088759 0.0033067 -0.0029483 -0.34398 0.12779 -0.094536 0.43467 0.49742 0.25068 -0.20901 -0.58931 0.061615 0.10434 0.24424 -0.2912 0.30746 0.36276 0.71151 -0.080523 -0.59524 0.34834 -0.33048 0.070316 0.53329 -0.29081 0.13459 -0.39856 -0.32435 0.11867 -0.14938 -0.38256 0.33116 -0.31488 -0.094491 -0.061319 0.15518 -0.25523 -0.11813 0.25296 -0.095174 -0.16596 -0.1084 0.088803 0.2089 0.43981 0.0010476 -0.040666 0.26487 -0.61009 -0.14405 -0.081185 0.0075475 0.23373 -0.027772 -0.29315 -0.11744 -0.083193 -0.23768 0.15735 -0.56408 -0.29323 0.016387 -0.07816 -0.21301 -0.17845 -0.30769 -0.46203 -0.002522 0.42973 -0.045647 0.43434 0.29144 -0.20231 0.065217 -0.42321 0.71227 -0.55498 -0.36118 -0.14849 -0.10082 -0.10045 -0.17666 0.027141 -0.14148 -0.52112 -0.048785 -0.29672 -0.14418 -0.28042 -0.068216 0.64455 0.094982 0.084994 0.082954 -0.25255 -0.46606 0.27432 0.14998 0.056889 0.34382 -0.35301 -0.40666 0.013636 0.06307 0.34924 0.17517 -0.17623 -0.080157 0.12179 -0.14025 -0.26541 0.17016 0.12596 -0.21399 -0.21077 -0.46861 -0.22138 0.0016753 -0.14527 0.11256 -0.024644 -0.25005 -0.43965 0.46923 0.20156 0.32739 0.068498 -0.20121 -0.078691 -2.6755 0.14326 0.069114 0.36917 -0.11858 -0.21332 0.24918 -0.12622 0.05595 -0.28807 -0.59173 -0.090193 -0.18155 -0.3347 -0.074857 0.11898 -0.41698 -0.19773 0.19724 0.11124 0.26915 -0.43901 -0.058556 0.4202 0.2738 -0.097767 0.075527 -0.21164 -0.19093 0.35376 -0.69182 -0.025014 0.058887 -0.17279 -0.44822 -0.15286 -0.21873 0.22586 -0.13494 0.0077586 -0.28582 0.0603 -0.0061573 -0.30737 -0.8251 0.58975 -0.41435 0.098575 -0.080579 -0.6051 -0.31138 0.23793 -0.33706 0.097126 0.41277 0.27025 -0.071067 -0.51049 -0.080376 -0.16188 0.013121 0.21678 -0.27958 -0.19755 -0.34668 0.10901 -0.15878 0.011535 -0.02506 -0.24669 0.027795 -0.46083 -0.16082 -0.16443 0.34003 -0.61288 0.0013028 -0.12118 0.38965 -0.43394 0.066747 0.24109 -0.31253 0.27997 0.14047 -0.016265 -0.060792 0.65612 -0.071277 0.082271 0.08524 0.15606 -0.21927 -0.12083 -0.20386 -0.0039694 -0.043643 0.42532 -0.33641 0.30292 0.29297 0.12963 0.15872 -0.31301 0.26109 0.24433 -0.019605 -0.44197 0.45351 0.22184 0.036002 0.30979 0.028024 0.29232 0.088706 0.13376 0.56731 -0.17374 0.37015 -0.29521 0.03411 0.41392 0.015641 -0.31128 -0.34823 0.3356 0.172 0.41568 -0.26028 0.33601 -0.0041509 -0.016774 -0.26867 0.050892 -0.1267 0.46916 -0.11842 0.29402 0.35544 0.073157 -0.19305 0.2306 -0.26933 0.062013 -0.0547 -0.38535 -0.13039 -0.084836 0.098583 -0.15403 -0.36347 -0.19985 -0.22663 -0.53781 -0.24666 0.019266 0.21319 0.16665 -0.38341 -0.073803
book -0.25634 0.37457 -0.004352 -0.031364 0.4971 0.50019 -0.3169 -0.029405 -0.22395 2.381 -0.81318 0.27069 0.34308 -0.078216 0.2674 -0.51941 -0.31679 0.8491 0.022034 -0.53105 0.086985 -0.11785 0.21479 0.039043 -0.099961 0.11391 -0.21741 -0.32704 -0.29491 -0.086 -0.24382 0.098824 -0.02263 0.29134 0.27264 0.33285 0.045503 0.098407 -0.18514 -0.46821 0.0914 -0.022837 -0.24866 -0.79528 0.051666 0.18128 0.21811 0.15358 0.64734 -0.29907 -0.098936 -0.32219 0.045833 0.22118 -0.28844 -0.25109 0.40069 -0.21542 0.09279 -0.42477 0.046412 -0.22256 -0.055182 -0.1102 0.13496 -0.63449 -0.043407 0.25229 0.06561 1.0135 0.054721 -0.54421 0.27582 -0.23639 0.33991 0.11534 -0.17382 -0.42888 -0.19768 0.55116 -0.22891 -0.16489 0.6914 -0.24166 0.21811 -0.3985 -0.61071 -0.49987 0.21985 0.35202 -0.45856 -0.16199 -0.43864 -0.078832 0.25368 -0.088571 0.18792 0.3635 0.40715 -0.56314 0.24543 -0.74103 -0.38724 -0.40286 0.0033783 0.088642 0.033623 0.48821 -0.22392 -0.13939 0.36022 0.51909 0.70442 -0.46184 0.0122 -0.56128 -0.50418 0.46753 0.26218 -0.0081772 0.24817 -0.074339 0.20707 0.45504 0.036068 0.59985 -0.21424 -0.23995 0.36992 -0.46037 -0.2692 -0.618 0.030972 -0.080024 -0.40317 0.13505 -0.0032945 0.2585 -0.17027 -0.34692 -1.5861 -0.72986 0.16456 0.20123 -0.17948 -0.34914 0.22743 -0.33119 0.068335 0.15171 0.57997 0.33034 0.0043133 0.034984 -0.060907 0.089192 0.063378 -0.24068 -0.3988 0.063328 0.045041 0.16286 0.35618 -0.11985 -0.19891 -0.29243 -0.1531 -0.26166 0.2364 0.13252 -0.075734 0.17711 0.31448 -0.5544 0.197 0.039871 0.56064 0.046555 -0.14556 0.034471 -0.018021 -0.12383 -0.014558 -0.63402 0.27232 -0.23781 -0.18943 -0.42285 -0.091308 0.63186 -0.69358 0.0078969 -0.27174 0.41445 -0.43317 -0.13055 0.028033 -0.072683 0.52468 -0.20732 0.057344 -0.6957 -0.15571 -0.25513 0.16345 0.24935 -0.19287 -0.076101 -0.34182 0.4688 0.44854 0.067478 -0.20677 -0.92246 0.44716 0.18048 0.21567 0.096788 -0.18985 0.024123 0.31783 -0.3747 0.28202 0.037258 -0.30159 -0.23624 -0.36413 0.084364 -0.22839 0.59109 -0.19638 0.22846 -0.056219 -0.049417 -0.40668 -0.24509 0.024752 0.038166 -0.19141 0.16327 -0.11418 0.051323 -0.38583 0.10588 0.39432 -0.056757 -0.21799 0.17173 -0.11728 -0.51396 0.17771 -0.7021 -0.15885 0.17542 0.39674 -0.18419 0.21364 -0.51103 -0.40885 -0.064368 0.060471 -0.20733 0.059923 0.65416 0.75107 -0.49157 0.21521 0.47855 0.53864 -0.20111 -0.70458 -0.7353 0.0294 -0.10443 -0.17909 0.065676 -0.6985 -0.098871 -0.34124 -0.0027798 -0.2062 -0.12418 -0.19 -0.7491 -0.27923 0.29526 0.18807 0.14369 -0.34845 -0.1693 -0.15428 -0.038286 -0.12579 0.34074 0.67666 0.034156 0.70225 -0.44008 0.15951 -0.40153
water -0.036665 0.20106 0.2851 -0.43246 -0.39545 0.30987 -0.79159 0.41187 -0.33271 1.9379 -0.61917 -0.19816 0.13055 -0.16503 -0.62101 0.013309 -0.29613 2.3431 -0.62299 -0.21075 0.25922 0.039819 -0.35368 -0.24054 0.18503 -0.28281 0.091869 0.20203 0.25665 -0.2135 -0.16991 -0.15173 -0.33541 -0.64444 0.16339 -0.27155 0.54039 -0.32857 0.47726 -0.13705 0.047238 -0.25229 0.099208 -0.16887 -0.25823 0.14962 -0.6794 0.019638 -0.1092 -0.14687 0.40982 0.46903 0.074614 0.44393 -0.055369 -0.56503 0.21197 -0.12935 0.14031 0.64158 0.28903 -0.22638 0.24099 0.43298 -0.52761 -0.042839 -0.43374 -0.19068 -0.53757 -0.1047 -0.48181 0.58251 0.26624 -0.51268 -0.13023 0.28806 -0.33605 0.49754 0.29968 -0.73096 0.23977 0.17858 -0.40493 -0.0722 -0.32426 -0.63478 0.53628 1.0066 -0.35409 0.72775 -0.022701 -0.437 -0.098996 -0.1466 0.064749 -0.80984 -0.0098738 -0.12653 0.057375 -0.18718 0.28084 0.068107 -0.8009 -0.02296 -0.40845 -1.4583 -0.07804 -0.13897 -0.26018 -0.85785 0.13829 -0.53882 -0.55413 -0.19553 0.27652 -0.30186 0.29493 0.24467 0.07519 0.50151 -0.15831 -0.23487 -0.37287 -0.85027 -0.049534 -0.13192 -0.38348 -0.041931 0.17169 -0.16503 -0.24795 -0.43618 0.16425 -0.01756 0.28267 0.64302 0.12798 0.075033 0.61581 0.15125 -1.3475 0.3338 0.61358 0.38683 0.36597 0.095193 -0.35098 0.055837 -0.080567 0.14829 0.045927 0.27409 0.23304 0.42742 -0.58813 -0.4526 -0.065998 0.76931 -0.077444 0.30605 0.40982 -0.14389 -0.24193 0.77352 0.42992 0.0038604 -0.17445 -0.37388 -0.042349 0.54897 -0.21122 -0.2692 0.053854 -0.39542 -0.26183 -0.067689 -0.10091 0.2072 0.30407 -0.30235 -0.12474 -0.32774 -0.31567 -0.17201 0.43191 -0.57361 0.15542 0.11111 -0.29748 -0.43406 -0.23315 0.00012856 -0.21736 -0.0022883 0.20208 0.72397 0.22167 0.51293 -0.22676 0.050753 0.062123 0.62281 -0.14516 0.46907 0.21518 0.34214 0.44307 0.50663 0.57701 -0.17533 -0.38675 -0.39262 0.40508 -0.46347 0.096403 -0.047639 0.12498 -0.027788 -0.22073 0.1635 -0.29113 0.28889 0.59691 0.26679 0.11291 -0.35082 0.019529 0.12104 -0.6788 0.19679 0.58624 -0.34332 0.40507 0.11253 0.027961 0.29478 0.50234 -0.092297 -0.11831 -0.25222 -0.35615 -0.20947 0.22789 -0.29294 -0.16879 0.20061 -0.30139 -0.63424 -0.070012 0.23786 -0.25329 -0.40892 -0.12847 0.073232 0.24609 1.0516 0.040224 -0.15712 0.041256 -0.28097 0.38165 0.12886 0.15026 -0.36046 0.62247 -0.31683 -0.20912 0.34379 -0.10679 -0.059462 0.60003 -0.083553 -0.14807 0.10901 0.18346 -0.076626 0.0095484 -0.025222 -0.34752 0.15121 -0.0090765 -0.31087 -0.41102 0.30245 -0.37265 0.17909 0.74924 -0.076798 -0.16339 0.19804 -0.24857 -0.46994 0.23321 -0.69223 -0.12801 0.4607 -0.56677 -0.34485 0.16798 -0.16952
music 0.31855 0.53331 0.26514 0.1145 0.39786 0.15012 0.0063637 -0.6698 -0.11957 2.0047 0.069729 0.40038 0.0044696 -0.008986 0.078558 -0.10006 0.04945 0.93725 -0.54365 0.11022 0.082038 0.1548 -0.2588 -0.24685 0.34784 0.16734 -0.066438 0.39029 0.54362 0.017046 0.29121 -0.38335 -0.26849 0.072205 -0.3094 0.16987 -0.1483 0.23399 0.54379 0.14395 0.427 0.47503 -0.18156 0.55505 -0.25173 0.06909 0.35115 -0.077091 -0.53551 0.040812 -0.26846 -0.3689 -0.34882 0.4252 -0.079917 -0.23062 0.27218 -0.45625 -0.16919 -0.94935 -0.012725 0.18676 0.11075 0.74308 -0.58259 -0.52302 -0.022354 0.070377 0.16609 -0.29183 -0.16418 0.30195 0.045677 -0.53092 0.023194 -0.40472 -0.044543 0.69661 -0.37464 0.32554 0.4674 0.08796 -0.35652 0.24958 -0.17659 0.19115 -1.2964 -0.079347 0.33034 -0.20214 -0.66551 -0.44709 0.074631 0.60858 0.23371 -0.57424 0.48143 0.54276 -0.52155 -0.074808 -0.090259 -0.48315 0.35769 0.20709 -0.039966 -0.18599 0.27441 0.065158 0.3685 -0.22487 0.42542 -0.022049 0.0055826 0.06712 -0.017861 0.26763 0.52716 0.68078 -0.19617 0.386 -0.082564 0.38041 -0.10978 0.24066 0.0114 0.40679 0.023271 0.15173 0.63619 0.34864 0.66118 -0.63188 0.047308 0.089685 0.3848 0.70553 -0.23958 -0.14955 0.30895 -0.41478 -2.9514 -0.11941 -0.19654 -0.044868 -0.32659 0.022819 0.36248 -0.2704 -0.59509 -0.42385 -0.14065 0.020701 -0.19648 0.19533 0.17769 -0.47727 0.39 -0.89317 -0.19559 -0.38795 0.39175 0.13192 0.77833 -0.2641 0.077442 -0.092171 0.16104 0.16547 -0.51802 -0.39738 0.28199 0.1958 0.015932 -0.35169 0.29684 -0.01453 -0.035694 -0.23246 0.11149 -0.35984 0.25649 -0.10628 0.72898 0.50279 -0.39887 0.22123 -0.43148 -0.35989 -0.021326 -0.47883 -0.15377 0.084897 0.034561 -0.3091 -0.21815 -0.075744 -0.12288 -0.057897 0.29616 -0.28449 0.1619 -0.46297 0.26925 0.34259 0.42829 -0.58269 0.10567 -0.015011 0.27046 -0.30678 -0.62859 0.2748 0.068132 -0.1381 -0.055932 0.29623 0.20015 -0.53919 -0.020578 0.55694 0.062411 0.0089958 -0.38668 0.025408 -0.24043 0.074839 0.27647 0.18223 0.11647 0.27968 -0.10573 -0.53246 0.0085216 0.27223 -0.0038184 -0.24446 -0.16882 -0.043567 -0.23134 -0.33838 -0.17611 -0.0017314 -0.043957 -0.091359 -0.2659 0.0052192 -0.016169 -0.052263 -0.27207 -0.4001 0.337 0.3384 0.22586 0.23182 0.15887 0.097682 0.21931 -0.12308 0.097082 -0.049069 0.13077 0.074001 -0.049051 -0.10666 -0.079886 -0.31041 -0.28968 -0.32415 0.6119 0.69015 -1.1744 -0.10894 -0.00029973 -0.31618 0.47643 -0.22657 0.14944 -0.23356 0.10324 -0.26859 -0.045677 0.024147 0.15689 0.1437 -0.11616 0.32479 0.62078 -0.18363 0.10084 -0.69901 -0.69483 -0.52527 0.28497 0.43327 0.37099 0.14678 -0.024074 0.15665 0.0027153 0.45923
car 0.20987 0.46481 -0.24238 -0.065751 0.60856 -0.34698 -0.25331 -0.4259 -0.22277 2.2913 -0.33853 0.23275 -0.27511 0.24064 -1.0697 -0.26978 -0.80733 1.8698 0.45562 -0.14469 0.016246 -0.35473 0.76152 -0.068589 0.012156 0.009052 0.11131 -0.30746 0.24168 0.114 0.43952 -0.66594 -0.073198 0.80566 0.11748 -0.38758 0.10691 0.33697 -0.13188 0.19364 0.55553 -0.34029 0.17059 0.40736 -0.1615 0.070302 0.067772 -0.81763 0.30645 -0.0099862 0.094606 -0.59763 0.14192 0.14857 -0.31535 0.099092 0.20673 -0.44041 0.21519 -0.41294 0.26374 -0.15493 0.24739 0.4209 0.18768 0.046904 0.096848 0.027431 0.10633 0.31926 -0.7626 -0.088373 0.37519 0.47369 -0.73557 -0.1076 -0.026557 -0.51079 -0.18886 0.28679 0.065798 0.57129 0.25056 0.073858 0.00847 0.015158 0.7357 0.62549 0.0516 -0.25802 -0.081203 0.13731 0.18809 -0.65871 -0.22361 -0.33318 0.15853 0.51523 0.50259 -0.16894 -0.086465 0.25036 -0.17419 -0.027723 0.11262 -0.46449 0.16956 0.28931 -0.13187 0.46368 -0.29348 -0.31244 0.65886 -0.47842 0.14754 -0.30646 0.43847 0.17684 -0.11968 -0.031002 -0.12228 -0.56424 0.15289 -0.79389 -0.36731 0.16918 -0.09521 0.1649 0.15936 0.1246 0.38846 0.23019 -0.13054 -0.21932 -0.26782 -0.60745 -0.34826 0.17656 -0.10351 -0.2275 -1.6111 -0.40504 1.0872 -0.16391 0.065586 -0.10632 -0.14014 0.17712 0.711 0.20313 -0.50138 0.17291 -0.053208 -0.40668 0.14907 -0.30631 0.46572 0.37977 -0.13336 -0.076937 0.011803 -0.11185 0.70364 -0.068615 0.58586 -0.5989 -0.28104 0.49674 0.45867 0.16291 -0.28317 0.3887 -0.39882 0.22407 -0.23704 -0.23155 0.067882 0.83828 0.13231 0.29778 0.18471 -9.7415e-05 -0.69993 0.0046959 -0.35461 -0.096413 0.10312 0.085293 -0.26909 0.43886 0.31275 0.22829 0.48072 0.18399 -0.17628 -0.48322 0.095676 -0.24499 0.058915 -0.039355 -0.46954 -0.26272 0.15462 -0.18055 0.0016881 0.057027 -0.067284 0.24853 0.35735 0.14325 -0.49276 -0.029321 0.051167 0.4962 0.37308 0.40203 0.092905 0.74061 -0.33765 -0.35641 0.61675 -0.95517 -0.27492 0.22079 -0.28898 -0.15504 -0.31433 0.58383 -0.026138 -0.27755 -0.047184 0.10504 -0.42419 -0.16414 -0.50711 0.42617 0.36889 0.43267 -0.004448 0.56442 -0.030964 0.077629 0.22218 0.12818 -0.16235 -0.22912 0.49174 -0.51937 -0.20793 -0.36868 -0.55714 -0.1993 0.29782 0.075921 -0.39895 0.81692 -0.10221 -0.38049 0.19906 -0.019875 0.073431 -0.13882 0.27914 -0.45367 0.29227 -0.55489 -0.42121 0.55667 -0.4523 -0.11956 0.13504 -0.2358 0.74221 -0.2789 -0.05458 0.31944 0.36717 0.1343 0.13629 -0.097458 -0.6031 -0.17762 0.2591 0.3315 0.22701 0.63664 0.15324 -0.32894 -0.36749 -0.20328 -1.1924 -0.46395 0.66984 -0.49404 0.44154 -0.43699 0.23538 0.32135 0.26649 0.22438
food -0.43512 0.028351 0.4911 -0.35168 -0.11578 1.0369 -0.09755 0.086624 -0.1789 2.4555 -1.2798 0.021074 -0.03225 0.094673 -0.14 -0.52143 0.00066447 1.8051 -0.22604 0.33227 0.00041163 0.062654 0.14973 -0.5026 0.089701 -0.26908 -0.083594 -0.16677 -0.17036 -0.32049 -0.23586 -0.40395 0.32683 -0.21712 0.098576 0.47552 0.092994 -0.061034 0.12673 0.60856 -0.0067936 -0.21831 0.021751 -0.24858 -0.035244 0.13692 -0.37109 0.54421 0.040017 0.13992 0.039967 -0.31745 0.24408 -0.2355 0.24884 -0.31929 0.11282 -0.010198 -0.050538 -0.1155 0.30273 -0.61441 0.016135 0.010675 0.15108 -1.1759 0.097104 0.071706 0.19795 0.27253 -0.22122 0.64478 -0.066252 -0.29403 0.16281 -0.0078554 -0.14986 -0.11364 0.36459 0.13723 0.46612 0.26157 0.0065022 -0.67068 -0.075247 -0.50802 -0.049202 0.90222 -0.30085 0.15453 -0.44762 -0.30997 -0.14006 -0.48079 0.07838 -0.20951 -0.07558 -0.37064 0.48714 -0.31549 -0.51954 -0.23939 -0.066667 0.18613 -0.0022506 -1.1914 0.88962 0.077849 -0.028469 -0.20316 0.1663 -0.51348 -0.5587 -0.23375 -0.053809 -0.22482 -0.16111 -0.055308 0.25306 -0.26012 -0.44041 0.45938 0.2086 -0.37273 0.18066 -0.68302 0.6074 -0.43613 0.21322 0.080519 0.23692 -0.82568 0.60825 0.28487 -0.21523 -0.25527 -0.02536 -0.20474 0.17836 -0.46982 -1.5028 -0.13935 0.63359 0.077543 0.23253 -0.9455 -0.31292 0.1868 -0.15495 0.044739 0.039165 0.25441 0.3317 -0.072885 0.26937 -0.46139 0.67444 0.040953 0.17357 0.24625 0.11436 -0.019437 0.084576 -0.25671 -0.19088 -0.0097901 0.4067 -0.52662 0.33074 -0.016063 0.50736 -0.078741 -0.10957 -0.16075 -0.57401 0.32421 0.26512 0.22437 0.168 0.0083381 0.29091 -0.8531 -0.10966 0.012598 0.19428 -0.34592 0.15497 0.11221 -0.019593 -0.51683 -0.27562 -0.29003 -0.29849 -0.74871 -0.43796 0.53964 0.25437 0.43718 0.56013 -0.24569 -0.026945 0.35646 0.15037 0.10629 0.31965 0.35652 0.029006 0.83085 0.78779 -0.58642 -0.078122 0.19765 -0.14726 -0.13157 -0.068822 -0.30101 0.32966 -0.19465 -0.15736 0.16771 -0.39267 0.31687 0.080543 -0.021005 -0.028093 -0.0086245 -0.11506 0.078586 -0.43331 0.15771 -0.30605 -0.32882 0.18208 -0.39534 0.33031 -0.099457 -0.16041 0.057775 0.20208 -0.3808 -0.23455 -0.025349 -0.23527 -0.081126 0.035611 0.56273 -0.096986 -0.38146 -0.62962 -0.20775 0.05543 0.44946 -0.27455 -0.11277 0.31322 0.71544 0.022552 0.0783 -0.25574 -0.23078 -0.76146 -0.13497 -0.474 -0.11224 0.11929 0.45973 -0.21328 -0.039544 -0.11253 -0.060995 -0.52906 0.18361 0.059157 -0.31468 0.10018 0.43707 -0.064725 0.50211 0.29269 0.8572 -0.22293 0.11703 -0.036008 -0.30947 -0.069151 0.43019 0.67241 -0.083894 -0.2771 0.1445 0.26701 0.32489 -0.077239 0.078217 -0.28737 0.30253 0.21972 -0.47151 0.4301 0.36573
house 0.19847 0.18087 -0.089119 -0.25626 0.074104 0.0059422 -0.080814 -0.87499 0.16353 2.7836 -0.89134 0.037017 -0.55995 -0.21853 -0.36847 0.42609 0.025508 1.1834 -0.059869 -0.016261 0.36331 0.12664 0.31424 0.023845 0.057331 -0.47905 -0.23247 0.023379 -0.29739 0.10735 0.29723 0.054123 -0.26837 0.48272 -0.048055 -0.010766 0.16169 -0.074395 0.0012789 -0.061155 0.24258 0.014165 0.083789 -0.35793 -0.048655 0.11436 0.27535 -0.9272 0.32332 0.16197 -0.2626 -0.32542 0.18347 0.57849 0.19925 -0.37611 0.1852 0.13349 0.19571 0.51844 0.20733 0.2047 0.08385 0.42725 0.11571 -0.12066 -0.076344 0.22959 -0.19066 0.28804 -0.048705 -0.1643 -0.098883 -0.37394 0.033152 0.045618 0.28564 -0.33728 -0.28675 -0.28868 -0.18131 0.6124 0.16237 -0.2266 -0.037512 0.21622 0.41143 0.41526 0.48579 0.034196 0.011097 -0.04238 -0.058883 -0.2518 -0.11827 -0.065252 0.43805 0.42373 -0.35036 0.20297 -0.096745 0.57277 -0.10347 0.038731 0.10371 -0.41211 0.16263 0.099873 -0.01925 -0.34607 -0.13904 0.093622 0.11864 -0.015903 0.48909 0.22709 -0.098584 0.24182 0.021903 0.28252 -0.21217 0.27143 -0.24541 -0.52238 0.22886 -0.26915 -0.070856 -0.14449 0.17106 0.047452 -0.1587 0.18143 -0.016997 -0.15448 0.47205 0.31468 0.23606 0.35544 0.46862 -0.15596 -1.734 -0.19391 -0.023963 -0.3602 0.046535 0.25813 -0.093215 0.2695 0.26694 -0.1503 -0.020352 0.18663 -0.1944 0.23475 0.34072 -0.071621 0.22388 -0.23374 0.0142 -0.14635 0.066203 -0.13022 -0.19029 0.207 0.20488 -0.55457 0.33125 0.18895 0.60863 0.24981 -0.21294 0.20438 -0.21388 -0.0092709 -0.32134 -0.27341 -0.053715 0.44432 -0.056145 0.19701 0.49993 -0.70837 0.16883 -0.21141 -0.095209 -0.029795 -0.078936 -0.27381 0.35855 -0.17869 -0.41047 0.0486 0.027462 0.11432 -0.076645 0.3218 -0.24885 -0.42627 -0.16614 0.1674 -0.21145 0.17912 0.37599 -0.51378 0.072899 -0.13659 0.11925 0.030539 0.22776 -0.26466 -0.28589 0.028825 0.25696 -0.046584 0.21268 -0.28677 0.27728 -0.056491 -0.17809 0.34237 -0.057061 -0.060279 -0.12577 0.13695 0.19769 0.1663 -0.25674 0.17 -0.35881 -0.32292 0.38045 0.062803 -0.22209 0.29701 0.056837 -0.27707 0.1102 -0.31815 -0.046311 -0.28384 -0.34146 0.11606 0.043806 0.58888 -0.22216 -0.22103 0.36901 -0.50477 -0.13206 -0.57208 -0.25279 0.051948 0.41786 -0.13912 0.17719 0.41387 0.36797 -0.26381 0.14578 -0.30316 -0.094649 0.063837 0.13826 -0.18213 0.17888 -0.18555 -0.19941 -0.15132 -1.1393 0.15898 -0.29225 0.20079 -0.049275 -0.80235 0.012834 -0.089354 -0.30374 0.56119 -0.02022 0.029735 0.58468 -0.10082 -0.47442 -0.0012492 -0.17756 0.30101 0.58639 0.12706 -0.48098 -0.098582 -0.27866 -0.38891 0.053706 0.79971 -0.38533 0.28433 0.035182 -0.24263 -0.035183 -0.29661
run 0.16073 -0.12474 0.11725 0.14143 -0.099597 0.21387 -0.14473 0.30532 0.73092 2.4118 -0.009554 -0.24113 0.051392 0.17904 -0.2771 0.1074 -0.017447 0.88025 -0.39454 -0.094743 -0.27873 -0.043236 0.07197 0.19391 -0.094292 0.19992 -0.013083 -0.07907 0.18682 -0.01275 -0.21713 -0.63875 0.011247 -0.18627 0.13302 -0.15399 -0.0003438 -0.10554 -0.13492 0.33136 -0.16391 0.53283 -0.47505 -0.21676 -0.043085 0.078535 -0.020231 -0.26099 -0.20495 0.20261 0.26383 0.26951 0.30391 0.12034 0.17392 0.10034 -0.021323 -0.2159 0.095643 -0.024803 0.042886 0.14072 -0.30657 -0.10478 0.13243 -0.41028 0.25352 0.14055 0.50192 0.39436 0.38191 0.19805 0.21872 0.0034115 0.24105 0.22358 0.08697 -0.069489 -0.06279 -0.012707 -0.3954 -0.40977 -0.12278 -0.44231 -0.72314 0.39006 -0.039586 -0.16972 0.46724 -0.10693 0.16539 0.17833 0.20299 -0.42668 0.12996 -0.44414 0.56903 0.18395 0.15846 -0.039418 0.044591 -0.0041855 -0.075911 -0.38014 -0.15651 -0.69823 0.13508 0.014993 0.10489 -0.11576 0.013546 -0.52649 -0.12024 0.043605 -0.061793 0.019278 0.085007 -0.11305 -0.29352 0.18509 0.23791 -0.12225 0.10133 -0.64555 -0.22629 0.031786 -0.054272 0.34463 -0.055583 0.081657 -0.08792 1.053 -0.1106 0.13306 0.030751 -0.38155 0.49267 0.081504 0.35454 -0.16235 -1.5202 -0.24622 0.5064 -0.41684 0.54837 -0.12827 -0.35927 -0.024667 -0.056456 0.12011 0.03851 -0.02678 0.29563 0.14486 -0.12775 -0.094224 -0.55279 0.039737 0.072841 0.091949 -0.39127 0.16788 0.10531 -0.012318 -0.0038817 -0.044018 -0.073963 -0.54036 0.1817 0.063489 0.10585 -0.027517 -0.1444 -0.5216 -0.32173 0.23091 -0.23111 -0.055704 -0.048068 0.55046 0.29812 0.013385 -0.74384 -0.14682 0.17848 0.040784 0.42906 0.43771 0.038128 0.1891 0.088427 0.071946 0.053871 -0.085971 0.22196 0.36988 -0.1904 -0.22779 0.13659 0.22143 -0.17375 -0.031458 -0.23359 -0.14795 0.24019 -0.16584 -0.19523 -0.37236 0.015767 -0.17022 -0.36099 -0.4066 0.20977 0.25363 -0.10731 0.1771 0.11621 0.1849 -0.3902 0.23267 0.085003 0.014776 -0.15179 0.07406 -0.040866 -0.09133 0.24871 0.26396 -0.1869 0.4918 0.30089 0.063256 0.55757 0.44126 -0.23639 0.1505 0.21359 -0.36318 -0.76818 0.46498 0.08938 0.03176 0.12606 0.54227 -0.26701 -0.48777 -0.23389 0.24813 -0.045184 0.11112 0.09927 -0.1428 -0.37363 0.1846 0.058197 0.08256 0.099377 -0.038291 -0.6566 -0.55685 0.42213 0.42977 0.4986 -0.27507 0.47895 -0.2311 -0.01278 0.15927 0.50561 -0.18986 0.59991 -0.095517 0.37662 0.0053142 -0.36128 -0.071831 0.091593 -0.24876 0.050845 0.066427 -0.060326 -0.051527 -0.52201 0.47854 -0.00129 -0.21286 0.1007 -0.53087 0.38458 -0.3979 -0.28664 -0.16365 0.13587 0.13827 -0.27443 -0.39701 0.44547 -0.078766 0.063416 -0.25544
city 0.82606 -0.1439 -0.1139 -0.58773 0.36067 -0.021813 -0.19245 0.52485 -0.45178 3.4625 -0.86157 -0.41722 -0.27149 -0.041312 -0.50788 -0.079349 -0.042998 1.1001 0.50304 -0.45956 0.37565 0.047925 0.12033 -0.012986 0.19825 0.10893 -0.5448 0.024224 -0.25618 0.085447 0.39151 0.040296 -0.67611 -0.10021 0.17208 -0.15833 0.22095 0.15596 -0.19949 0.26794 0.25859 0.15607 -0.14897 -0.084457 -0.1172 -0.23597 0.10548 -0.16072 -0.42193 -0.60523 -0.18601 0.35139 -0.32211 0.039916 0.35247 0.49909 0.30473 0.11745 0.42695 0.071845 -0.040026 -0.69934 -0.13896 0.50755 0.34638 0.29651 -0.24065 -0.28013 0.02141 0.37612 -0.44745 0.042058 0.048382 -0.19244 0.064905 -0.21864 -0.35977 0.30982 0.49249 0.010897 0.065605 0.41243 0.66428 -0.22777 -0.43506 0.22695 -0.10972 0.031647 -0.33898 -0.44186 -0.050237 0.096978 -0.15551 -0.42051 0.48741 0.06191 -0.2115 0.30245 -0.097695 0.62781 0.49317 -0.10852 -0.21485 0.22733 -0.10813 -0.66023 0.0023523 -0.067098 -0.13583 -0.45461 0.0025615 -0.075996 0.16745 0.34823 -0.29872 -0.26779 0.09682 0.079003 -0.61459 -0.71818 -0.24445 0.23285 -0.1677 -0.19551 -0.31167 0.038321 0.34463 -0.24509 0.43326 0.18857 0.12473 0.06623 -0.069541 -0.77052 0.36338 -0.38803 -0.20569 -0.15166 -0.38249 -0.50422 -0.88824 0.34926 0.11971 -0.26245 0.045323 0.024998 -0.0060759 -0.05031 0.1612 -0.046617 -0.026057 0.12601 -0.092645 0.074345 -0.1406 -0.73062 -0.28409 -0.19302 -0.05059 -0.18045 0.59303 0.23949 0.061149 0.13714 0.42667 -0.084286 0.28275 -0.18165 -0.13253 0.18564 0.11927 0.29728 -0.28296 0.060293 -0.10316 -0.21857 -0.019333 0.017656 0.29336 -0.1752 0.57054 -0.068163 -0.6902 -0.38266 -0.051115 0.46823 -0.23502 -0.28266 0.097981 -0.13521 -0.4331 -0.1713 -0.13171 -0.008056 -0.19463 -0.095879 -0.036264 0.02172 -0.21109 0.39314 0.22171 -0.37227 -0.056308 0.13211 0.085415 -0.0093049 0.50353 0.10456 0.15611 -0.16923 -0.21926 -0.2336 -0.36954 -0.053454 -0.020355 0.10141 0.25954 0.14381 0.53405 0.31126 0.075101 -0.29979 -0.16127 0.28733 -0.40753 -0.018548 -0.035661 1.1529 -0.23969 -0.22628 0.31946 0.22383 0.17606 -0.25161 -0.12885 0.62538 0.079054 -0.02678 0.10535 0.26068 0.31292 0.23598 0.45974 -0.25434 0.00764 0.61257 0.17722 -0.18536 0.14708 -0.883 -0.084645 0.21626 0.42422 0.1714 0.34563 0.81256 -0.51154 -0.38976 -0.36147 -0.22609 0.21722 -0.19417 -0.019273 -0.39005 -0.26466 -0.83785 0.15336 -0.41593 -0.67812 -0.042834 -0.95409 -0.14699 -0.091655 -0.034808 0.29943 -0.10053 0.45099 -0.10045 0.046016 -0.17123 0.23862 -0.28023 -0.037083 0.26604 -0.44325 0.085748 0.36402 0.21933 -0.29168 -0.023253 -0.46498 0.054515 0.32496 -0.11543 -0.34163 -0.094956 -0.45352 0.13597 -0.45589 0.097979
past 0.22335 0.097058 -0.01146 0.093134 0.44923 0.048892 -0.28302 0.40869 0.39095 3.276 0.095341 -0.21178 0.19101 -0.2841 0.016243 0.023951 0.18463 0.33842 -0.13062 -0.095555 0.30402 -0.086039 0.12165 0.11435 0.067694 0.23772 -0.1463 -0.13849 0.1165 0.39244 0.11719 0.16812 -0.39566 -0.24337 -0.054311 0.41422 -0.057355 0.24522 -0.012573 0.34476 0.0035234 -0.032769 0.020703 0.34479 -0.14727 0.19836 -0.16802 -0.21576 -0.0015546 -0.18576 -0.22069 -0.19525 -0.071926 -0.018119 -0.10238 0.04977 -0.07074 0.24634 0.10467 0.14583 0.081867 -0.11294 -0.059176 0.47623 -0.12856 0.043663 -0.12025 -0.031012 0.22778 0.21754 0.17845 -0.1304 0.22115 0.4797 0.29298 0.39308 0.3096 -0.21799 -0.086493 -0.0091986 0.17545 0.24523 -0.27826 -0.008618 -0.20931 -0.13649 -0.43351 -0.14239 0.13102 0.21863 -0.0027702 0.0063996 0.15357 0.11382 -0.13338 0.030323 0.39314 0.2737 0.33617 -0.14021 0.19742 -0.15803 -0.091897 -0.081941 0.16677 -0.8189 -0.0694 0.15433 0.1484 -0.13375 0.12265 -0.46364 0.20662 -0.13782 -0.075455 0.23017 -0.2209 0.11541 0.30831 0.051274 0.069775 0.040706 -0.10288 0.17537 0.40808 -0.067878 -0.25902 0.10802 -0.009674 -0.02734 0.1506 -0.010569 -0.10203 0.27403 0.067854 -0.21047 0.051527 0.22391 -0.045148 -0.04497 -1.1429 -0.11149 0.35322 0.17122 0.076924 -0.25281 -0.55311 0.072365 -0.16806 0.21154 -0.11856 -0.10721 -0.043101 0.10679 -0.19167 -0.34996 -0.088663 0.41798 0.34684 -0.27615 -0.23567 -0.072722 -0.13347 0.030289 -0.37927 0.20889 -0.14041 0.067544 0.12658 0.19281 -0.073303 0.14902 0.042655 -0.063776 -0.62966 0.1743 0.2266 0.047388 0.14534 -0.10424 0.042306 -0.054596 0.037663 0.19265 0.015615 -0.12162 -0.28659 -0.22955 0.2252 0.18831 0.40217 -0.08435 0.096254 0.10029 0.010824 0.2095 0.22769 0.017013 -0.37412 0.18572 -0.086089 0.053482 -0.45147 0.018913 -0.062556 0.073699 0.21478 0.11446 0.091503 -0.0025289 0.033034 -0.19793 -0.019295 -0.1234 -0.11826 -0.10161 0.33939 0.019748 -0.092286 0.060259 0.12716 0.18262 -0.36159 0.19846 -0.2204 -0.24294 0.060746 0.12589 -0.079508 0.39889 -0.20678 0.37761 0.44666 0.31582 0.19173 -0.31235 -0.062077 0.038705 -0.15642 -0.40537 0.08476 0.021271 -0.21719 0.71534 0.03521 -0.11618 0.016383 0.21653 0.10267 0.32173 -0.0056129 -0.36431 0.014849 0.1081 0.068656 0.33639 0.010234 -0.04128 -0.13163 0.03683 0.38825 0.32245 0.042824 0.091059 -0.050821 -0.24258 -0.31281 -0.17751 0.224 -0.051388 -0.17582 -0.14975 -0.14986 -0.30496 0.22693 0.0055028 -0.24459 -0.19642 -0.099117 0.19542 -0.14483 0.0666 -0.43749 0.10195 0.30105 -0.17318 0.14594 -0.55352 0.18803 0.071285 -0.4457 0.22826 0.024569 0.1505 0.11807 -0.22387 -0.039779 0.29622 0.025446 -0.34038
future 0.022775 -0.13632 -0.20309 -0.0565 -0.029458 -0.29253 -0.032335 0.171 -0.045585 2.9604 -0.37181 -0.005663 0.080821 0.43575 0.17098 0.22894 0.032624 0.99425 -0.34952 0.15665 -0.019301 -0.04368 -0.0091571 -0.061595 0.015029 0.27176 -0.11058 0.40418 0.028897 0.32615 -0.33242 -0.14747 0.07581 -0.027043 0.10308 0.26551 0.5647 0.002942 0.061528 0.14814 -0.074413 0.26228 0.19762 0.52038 -0.56282 0.09214 -0.049264 -0.056184 -0.20006 -0.23039 0.42923 -0.21737 -0.26537 -0.44954 0.070047 0.048859 -0.39439 -0.11189 -0.062976 0.10451 0.1428 -0.29286 0.12667 0.075197 0.48994 0.3129 -0.31967 0.078567 -0.16396 -0.098435 0.13152 -0.51172 -0.0084388 0.13965 -0.077358 0.050729 0.20469 -0.20231 0.37466 0.16879 -0.13053 0.36398 -0.26729 0.40938 -0.16382 -0.10581 -0.78 -0.33226 0.25439 -0.083287 -0.12904 -0.006361 -0.43268 0.21425 -0.59888 -0.068363 0.018974 0.13667 0.013933 0.39094 0.097616 -0.3117 0.0061069 0.084183 0.16508 -1.2666 0.11676 0.22815 0.085494 0.26141 -0.24547 0.093887 0.11665 -0.20219 0.13759 0.19097 -0.20923 0.089319 -0.016667 -0.16129 0.074929 -0.088342 -0.11064 0.3234 0.24451 0.18394 -0.017222 -0.0067036 0.10875 0.11854 -0.034226 -0.28343 0.10515 -0.25651 -0.31727 0.28464 -0.13957 -0.24325 0.063077 0.35009 -0.90692 -0.40543 0.19716 0.045964 -0.19798 -0.38009 0.15633 0.33806 -0.19874 -0.13436 -0.088497 0.046608 -0.22738 0.17617 -0.068769 -0.29154 -0.089171 0.054297 0.14546 -0.22805 0.087764 0.28775 -0.32139 -0.17697 -0.10162 -0.31207 0.53578 -0.044393 0.77564 0.16181 -0.1292 0.4263 0.1099 -0.10284 0.24484 0.36195 0.18329 0.30671 0.057414 0.27831 0.048523 -0.098923 0.2987 0.0060341 -0.13872 0.28976 -0.053526 -0.14677 -0.40373 0.06834 0.50278 0.11485 -0.063543 -0.06569 0.055695 0.40647 -0.013872 0.1023 0.17482 0.71712 -0.11996 0.32345 0.042133 -0.17116 0.16782 0.08788 0.17309 0.37215 -0.22968 0.23422 -0.1971 -0.78349 0.11971 -0.24538 -0.13179 -0.022757 0.065988 0.096016 -0.065585 -0.05874 -0.32489 -0.26018 -0.34346 0.27069 0.0099721 -0.059233 0.028254 -0.33805 -0.23764 -0.0044233 -0.012977 0.036726 -0.077923 0.0038854 0.15637 -0.0143 -0.16971 -0.11191 -0.28247 -0.16299 0.3702 -0.27544 -0.30228 0.36154 0.39563 0.13884 0.25174 0.1323 0.073448 0.16094 0.16006 -0.30708 -0.15497 -0.10594 -0.055134 -0.026346 -0.17825 0.0080991 -0.154 -0.011738 -0.2829 0.3516 0.078854 0.52186 -0.020441 -0.55837 -0.13546 0.045822 0.79037 0.18366 0.092041 0.067855 -0.012827 -0.13096 -0.29212 0.039808 0.15519 0.25831 -0.26792 -0.14739 -0.18511 -0.14349 -0.25499 0.026982 0.22967 -0.07629 0.18777 -0.14861 -0.26149 -0.10297 -0.6353 0.17262 -0.0061522 -0.059914 0.36249 0.0018615 -0.34349 -0.21721 -0.11026 0.14423
history 0.23065 -0.11056 0.14158 0.016909 0.22252 -0.16276 -0.38688 0.29952 -0.020271 3.0727 -0.32117 -0.26738 0.32136 0.24629 0.51356 -0.099713 0.19749 0.79116 -0.040866 -0.35227 0.46475 -0.080751 0.038628 0.054067 0.59398 0.37355 0.39593 0.32136 -0.31358 0.77743 0.35801 0.03928 0.20355 -0.051994 -0.0080437 0.3866 0.062252 -0.18621 -0.15997 0.64855 -0.060385 0.19469 0.2117 0.49959 0.012567 -0.20579 0.054291 0.28131 0.31514 -0.18467 -0.30978 -0.1545 0.026977 -0.35503 -0.0058951 0.18213 0.29373 -0.19454 0.11859 -0.099329 -0.16925 0.44615 -0.10273 0.67417 -0.24052 -0.012065 -0.0053863 0.32755 0.53905 0.30195 0.11351 0.1191 0.076418 -0.097557 0.46672 0.11216 0.036489 0.028184 -0.27859 0.32976 -0.0908 -0.099928 0.18505 -0.061845 -0.20185 -0.43386 -0.83978 -0.15946 -0.15395 0.19448 -0.5574 0.10998 -0.28778 0.079744 0.41359 -0.48333 0.30275 0.14645 0.16908 -0.33772 0.078399 -0.12564 0.32352 0.090185 0.09797 -0.84887 -0.22012 0.10607 0.35192 -0.1288 -0.18695 0.44124 -0.14471 -0.47818 -0.41193 0.37885 -0.18191 0.22119 -0.20987 -0.19037 -0.30748 -0.01259 -0.0059981 0.36247 0.1214 0.081608 0.072683 -0.11937 0.44233 -0.25894 0.42512 -0.25186 -0.055145 -0.06035 -0.053955 -0.22137 0.057372 0.26167 -0.13731 -0.49438 -1.0383 -0.40035 0.73709 0.45801 -0.088335 -0.18097 0.011303 0.28986 -0.09986 0.49346 0.31697 0.15312 0.092257 0.25967 -0.41717 0.062477 0.18335 -0.17941 0.75972 0.27656 0.044907 -0.016235 0.32518 0.055816 -0.46918 -0.03266 -0.39671 0.049579 0.43734 -0.11294 -0.19864 0.24132 -0.1338 0.072524 -0.36952 0.21976 0.34738 0.23191 0.19457 -0.044636 -0.10759 0.29767 -0.12646 -0.091921 -0.36512 -0.12846 -0.15118 -0.24361 0.014633 0.018998 -0.52588 -0.40314 -0.045352 0.19182 -0.10649 0.42166 0.24248 -0.31285 0.2514 0.028592 0.053496 -0.16551 -0.067224 0.10824 -0.38569 -0.10341 0.4132 0.23472 -0.39258 0.27885 -0.11246 0.26672 0.086168 -0.28668 -0.36 -0.11816 0.41129 0.36415 0.014935 0.015845 0.036713 0.24535 0.013081 -0.07261 0.079981 -0.15955 -0.034965 0.51549 0.48073 0.56367 -0.090444 0.17485 -0.14266 0.11731 -0.46582 -0.0060689 -0.2522 0.21545 0.041449 -0.1622 -0.014617 -0.28826 0.01607 -0.23912 0.12393 0.19584 -0.19438 0.36351 0.074001 -0.54368 0.79583 -0.12904 0.15473 -0.00011189 -0.075396 -0.10911 -0.035441 -0.24538 0.082486 0.12875 0.20166 0.29275 0.055611 0.53741 0.1465 -0.39147 -0.19688 0.15592 0.3587 0.36316 -0.48907 -0.25407 -0.17642 0.07885 0.15061 -0.051492 0.19688 -0.11666 -0.33046 -0.78202 -0.32493 0.05938 -0.21767 -0.16785 -0.12531 0.13078 0.19936 -0.24465 0.21729 -0.23403 -0.53987 0.2465 -0.5493 -0.0045978 0.34765 -0.053344 -0.026872 0.15676 -0.17774 -0.18476
friend 0.07781 0.17561 -0.59164 0.25467 0.35536 -0.012292 0.20112 -0.66995 -0.31542 2.5369 -0.47548 0.1707 -0.11695 -0.38549 -0.27835 0.055296 -0.064078 -0.079487 -0.34494 0.35774 -0.21811 -0.41706 -0.64098 0.036701 0.25344 0.34272 -0.04791 -0.092455 -0.080844 -0.0086637 0.30313 0.2896 0.061777 0.060687 -0.01842 -0.30602 0.14682 -0.49091 -0.29218 -0.40193 0.36411 -0.13362 0.26271 -0.15217 0.0061636 0.3129 -0.10259 -0.3986 0.51418 -0.1792 -0.1092 0.040899 0.15443 0.14247 -0.16709 0.010487 -0.49335 0.085772 0.1322 0.19391 -0.2414 -0.27869 -0.15202 0.068752 0.3137 -0.277 -0.12181 0.3377 -0.13723 0.33939 -0.11314 0.020617 -0.16057 0.24231 0.0038482 0.35326 -0.0096347 -0.23555 -0.32013 0.28366 0.10229 0.19685 -0.059373 -0.1854 0.1799 -0.45729 0.6303 -0.31245 0.31529 0.02139 -0.29945 0.14386 -0.16443 0.25517 -0.11417 -0.37181 0.060008 -0.086672 -0.039532 0.32137 0.066685 0.0096489 0.50555 -0.12575 -0.21114 0.38425 0.13929 0.17109 0.1701 -0.11413 0.12128 -0.24111 0.052386 0.26319 0.022112 -0.019803 -0.015769 -0.24763 0.030424 0.10945 0.22978 -0.35119 0.72809 -0.20763 0.62868 0.087142 -0.21424 -0.069316 -0.40411 0.18423 -0.38387 0.061937 -0.22763 0.35271 0.049149 -0.33885 -0.16799 0.26675 -0.13637 -0.032153 -2.3097 -0.18342 0.011095 0.13269 -0.34031 -0.34762 -0.29551 -0.11052 -0.53525 -0.30782 -0.16805 0.33401 -0.38182 -0.25845 0.14774 0.21321 0.20519 0.020232 -0.029435 -0.6414 0.1033 -0.10655 0.023528 -0.47305 -0.109 -0.45158 0.12598 -0.010257 0.29757 0.1974 -0.2506 0.077568 0.54502 0.21065 0.030645 -0.18441 -0.30108 -0.10272 -0.20489 0.093007 0.14178 -0.42252 -0.098239 0.25605 -0.024678 0.26789 -0.21485 -0.1023 -0.21647 -0.43018 -0.44709 0.077053 -0.41606 -0.010182 0.21882 0.0010619 0.19402 -0.10831 0.39491 0.066868 -0.564 -0.10744 -0.37649 -0.22632 0.1637 0.33439 0.3476 -0.12175 0.0049535 -0.33996 -0.37911 -0.53179 -0.25522 0.12019 0.098629 -0.026616 0.17257 -0.0024376 -0.44958 -0.20691 -0.12843 0.070049 0.075926 0.52512 0.084008 -0.10056 0.26087 0.44333 -0.24152 0.17092 -0.28207 0.15183 0.0061362 -0.050025 -0.092243 -0.18859 -0.43935 0.57676 -0.16021 0.31295 3.7985e-05 0.24841 0.03778 0.089665 0.17232 0.10635 0.027202 -0.20939 0.17235 0.12455 0.15935 0.063692 -0.25054 0.22869 0.15568 0.27283 -0.061089 -0.61089 -0.10583 0.1203 -0.024005 0.23791 -0.27022 -0.21587 -0.27053 0.039957 -0.10879 0.3637 -0.27205 -0.076876 0.25047 0.087826 -0.36081 0.14852 0.18155 0.001527 -0.29401 -0.086911 0.061126 0.03399 -0.097012 -0.014318 0.35987 -0.091116 -0.066815 0.20913 0.4014 0.044707 -0.309 0.11652 0.19711 0.017036 0.05398 0.42092 0.5826 -0.28945 0.22655 -0.076056 -0.12362 0.16777
learn -0.25364 0.2371 -0.26729 0.18428 0.28403 -0.16407 -0.031168 0.33145 -0.079306 2.4575 -0.71774 -0.0062972 -0.28628 0.14679 -0.19482 0.2315 -0.10939 1.0067 -0.61048 -0.17185 0.43065 -0.1798 0.089311 0.029341 0.065276 0.20575 0.2882 -0.089006 0.19845 -0.48804 -0.27575 -0.13366 0.2681 -0.24906 0.29893 0.38782 0.62949 0.49647 0.079549 -0.1437 -0.4985 -0.50876 0.031067 -0.37938 0.19056 0.60028 0.17332 0.26952 0.25194 0.022723 -0.50404 0.045199 0.37027 -0.15905 0.22125 0.16162 0.058213 0.27654 0.034587 -0.090048 -0.14729 -0.10374 -0.40164 0.16764 0.22476 0.15527 0.12462 0.42879 0.73223 0.1954 -0.20605 -0.28714 0.41736 -0.73847 0.062684 0.04032 0.20113 -0.17682 -0.13473 -0.10599 0.16091 -0.14805 0.050279 -0.23433 -0.025947 -0.30272 -1.1621 0.046283 0.20957 -0.0018011 -0.12894 -0.14966 -0.44979 0.15053 0.087612 0.25077 -0.039292 -0.13221 -0.052609 -0.09389 0.078263 -0.1476 0.10108 0.19173 0.21985 -0.91798 0.26584 0.20992 0.12592 0.2131 0.45281 -0.23667 0.28984 -0.36219 0.13236 -0.14524 0.091691 -0.2908 -0.64841 0.13224 0.39769 -0.61629 0.19468 0.037179 0.4256 -0.050937 -0.34437 0.1663 0.29265 -0.20184 0.14204 -0.06742 -0.29429 0.32883 0.084359 -0.020209 -0.03634 0.10563 0.073121 -0.040579 -1.4636 -0.25864 -0.3289 -0.16702 0.08065 -0.094375 0.077325 0.24161 -0.36287 -0.38456 0.12599 0.21642 0.0056692 0.054506 0.00614 -0.15366 0.34098 -0.2537 -0.069088 -0.42466 -0.13844 -0.081888 -0.37433 -0.058611 0.59551 0.1419 0.071138 -0.36496 -0.023578 0.089437 -0.2482 -0.13493 0.77862 -0.041731 0.04173 -0.0034658 -0.11762 0.39275 0.22881 0.23651 0.39589 0.1738 0.26308 -0.048796 -0.019392 0.062759 -0.49869 -0.26183 -0.053612 0.23704 -0.12333 -0.21188 -0.045482 -0.26361 -0.081704 0.32117 0.11287 -0.034791 0.70755 0.53434 0.020169 -0.06037 0.19366 -0.12638 -0.31334 0.072307 0.0092859 -0.31595 0.59112 0.16698 -0.14724 -0.35515 -0.055396 -0.1556 0.071097 -0.088598 0.20622 0.1397 -0.30038 0.063638 0.60644 -0.14761 0.30465 -0.19749 -0.22043 0.1346 -0.12272 0.040271 0.086669 0.15708 -0.37805 -0.090361 0.09531 0.34817 -0.32114 0.0003007 0.098407 0.26354 0.26635 -0.050862 0.44376 -0.55099 0.18406 -0.30769 0.51612 -0.33164 -0.5669 0.091945 -0.4545 0.57484 0.54699 0.025224 -0.4337 0.16694 0.13014 0.030378 0.17742 -0.074216 -0.092418 0.35817 0.3613 -0.027648 0.027049 -0.13568 0.066887 -0.7824 -0.5458 0.10054 0.76092 0.73776 -0.28306 -0.074729 -0.41162 -0.065889 -0.37098 -0.14648 -0.15687 0.15841 -0.037669 0.045519 -0.11808 0.14569 0.22066 -0.1214 0.33652 -0.43151 0.17817 0.009503 0.030894 0.064723 0.2734 0.0073812 -0.43422 -0.11865 0.198 0.15917 -0.15596 0.1486 0.48908 0.42712
computer -0.26657 -0.13717 0.23549 -0.26712 0.093324 0.17563 -0.33309 -0.81744 0.52655 1.588 0.078138 -0.093094 -0.27167 -0.31207 -0.35018 0.072898 0.032007 2.5085 -0.35727 -0.018104 0.26102 -0.3157 -0.46466 0.029905 0.576 -0.34603 -0.1502 -0.23481 0.20626 0.28202 -0.6897 -0.17632 0.40369 0.40672 0.13068 -0.059988 -0.3405 0.46314 -0.21149 0.033152 0.36526 0.049521 -0.096128 -0.087093 -0.12957 0.22673 -0.50435 -0.50732 0.27695 0.14523 -0.11455 -0.13968 0.38549 0.26088 -0.43217 -0.45305 0.072362 -0.53383 0.23317 0.10471 0.51278 -0.05899 0.06051 0.22083 0.63098 -0.03232 -0.36192 0.45576 0.037796 0.21651 0.44988 -0.33074 0.32553 -0.30153 -0.20416 -0.14665 0.16424 0.13373 -0.16779 1.1746 -0.10912 -0.20507 0.38651 -0.35737 -0.026643 0.17325 -0.2969 0.67039 0.75858 -0.1168 -0.13134 0.38176 -0.4658 0.025771 0.0082968 -0.7205 0.48854 0.14139 -0.2939 0.24961 -0.35349 0.018458 0.54134 0.10035 -0.076024 -1.3677 0.045979 0.15556 0.3356 0.15967 0.27533 0.36783 0.16304 -0.11103 -0.40265 -0.058919 -0.21596 0.19496 0.059413 0.30387 0.27047 0.017042 0.39704 -0.13852 0.12767 0.41707 0.24256 0.91752 0.45297 0.56209 0.54665 0.29862 -0.17171 0.2429 -0.039825 -0.36826 -0.173 0.25535 -0.072918 0.077173 -1.0758 -0.059065 0.1631 -0.16374 0.083568 0.3455 -0.072737 -0.26645 -0.3967 -0.13455 0.26312 -0.20706 0.18288 0.11587 -0.11174 0.14654 0.093874 0.13199 0.27867 -0.6574 0.13134 -0.10831 0.49168 -0.056289 -0.33275 -0.15492 -0.040728 0.064694 -0.032248 0.61083 -0.56753 0.15492 0.2884 -0.084649 0.18294 0.17448 -0.3491 -0.10422 -0.77571 0.30476 -0.095897 -0.33695 0.161 -0.15076 0.14437 0.27484 0.10077 0.32409 0.21695 -0.53414 -0.22338 -0.43562 -0.32303 0.58586 -0.23184 -0.0181 0.19989 -0.35086 -0.08002 0.19299 0.095799 0.27447 0.43433 -0.098884 0.14404 -0.20874 0.015602 0.094597 0.4834 0.010013 -0.14255 -0.58035 -0.30333 0.051996 -0.15122 -0.37053 -0.37321 -0.034599 -0.99269 -0.15557 0.12362 -0.18469 -0.29648 0.014692 -0.065477 -0.13687 0.39093 0.56124 0.42304 -0.21074 -0.3262 -0.071347 0.27527 -0.18207 -0.43537 0.15757 0.26226 -0.37498 -0.47008 0.1778 0.6498 0.14257 0.14552 -0.12116 -0.12345 -0.65636 -0.23754 0.054897 -0.34359 0.26974 0.29918 -0.28367 0.17973 0.45228 0.46051 -0.51592 -0.26155 0.083629 -0.066247 0.13831 0.57407 0.55507 0.063494 -0.37227 -0.47057 -0.42985 -0.64027 0.071124 0.86233 0.05462 -0.5722 -0.17404 -0.022872 -0.30434 -0.18376 0.069443 -0.25937 0.22505 -0.41308 -0.90509 0.19915 -0.4752 0.19739 0.27136 -0.21026 -0.61475 -0.092514 0.048717 -0.22783 -0.60863 -0.78686 -0.16716 0.37552 0.57434 0.055414 -0.22545 0.30528 0.35608 -0.46496 0.13914
art -0.062923 0.0034059 0.3893 -0.15872 -0.14516 -0.24473 -0.40169 0.50173 -0.80402 2.0402 -0.12026 -0.44598 0.039175 -0.11336 0.25676 0.31061 -0.61527 1.6533 -0.40998 0.017032 0.67432 0.41169 -0.35999 -0.33841 0.33544 0.22573 0.60082 0.33756 -0.4401 0.36876 -0.18799 0.14028 0.17814 -0.38719 -0.0058516 -0.32531 -0.045695 -0.38006 0.3437 0.28344 0.098409 0.33456 -0.17884 -0.057759 0.087716 -0.08692 -0.011539 -0.29325 0.39939 -0.24908 0.11027 -0.41734 0.094943 0.17073 0.14163 0.16305 0.090651 -0.075263 0.080642 -0.32285 -0.57806 -0.20312 0.31439 0.37559 0.0088207 -0.22174 -0.074354 0.05029 0.35711 -0.38342 -0.13736 -0.85296 -0.44354 -0.1827 0.086818 0.33632 -0.42069 -0.47816 -0.43323 0.54539 0.15299 0.27014 0.11466 -0.31251 -0.34955 -0.28212 -0.6254 0.9254 -0.15921 -0.27552 0.071082 -0.14051 -0.33168 0.10615 0.36708 -0.33025 -0.23704 0.47526 -0.090684 0.22372 -0.016773 -0.21438 -0.50295 0.29045 0.14998 -0.3629 -0.28503 0.36653 0.10806 0.15015 -0.022038 -0.21249 0.68178 -1.2701 -0.21329 0.018293 -0.22533 0.47975 0.40044 0.49174 0.030866 0.30823 0.33515 0.46672 0.43338 0.16811 0.13931 -0.039513 0.45832 0.188 0.32444 -0.6397 -0.11647 -0.16216 -0.41318 0.099797 -0.21014 -0.059234 0.24726 -0.048474 -1.9228 -0.40967 -0.15018 -0.1868 -0.30441 -0.083027 0.06736 -0.17176 -0.40407 0.11572 0.54854 0.34734 -0.6335 0.14999 0.41488 -0.48086 -0.11128 -0.64772 -0.16764 -0.0050082 0.093659 -0.14323 0.13815 0.10827 0.041318 -0.21633 -0.307 -0.35178 0.040393 0.2132 -0.40461 -0.24833 0.32408 0.18399 -0.1392 0.29492 -0.4101 0.23288 -0.24329 -0.48841 0.25863 0.2664 0.19991 -0.22645 -0.39752 -0.045709 -0.071613 0.55122 0.046617 -0.34251 -0.78502 -0.0090968 -0.61263 -0.43065 0.53298 0.21241 0.25261 -0.58705 0.4926 0.15046 0.33868 0.0016641 0.057778 -0.090072 0.49131 0.021172 0.1572 0.12118 -0.036032 0.23804 0.17015 0.22108 0.37037 -0.41159 -0.44084 0.28866 0.64991 0.16906 0.4054 0.061765 0.014773 -0.11363 0.42972 -0.3043 -0.024546 0.24915 -0.22298 0.60736 0.18094 0.1993 -0.50113 -0.28566 -0.017166 -0.17391 -0.072412 0.015627 0.038185 0.25076 0.031951 -0.34377 0.077221 0.24025 0.13574 0.13196 0.041029 0.74041 -0.35634 0.10878 -0.010142 -0.39165 0.27602 -0.14241 -0.051001 0.38516 0.20992 -0.14696 0.13338 -0.41497 0.27785 -0.28202 0.69182 0.21958 0.088435 0.43151 -0.12875 0.044208 0.06205 -0.68944 0.33218 -0.098251 -1.5582 -0.15761 -0.040079 -0.41848 0.66262 -0.15196 0.14393 -0.13609 -0.090932 -0.0049266 0.10211 0.1108 -0.4054 0.19873 0.096223 0.038261 0.27227 0.36052 -0.27844 -0.27679 -0.43761 -0.41809 0.020272 0.14554 -0.11754 -0.12409 0.45034 -0.003199 -0.21591 0.53046
present -0.18582 0.14317 0.03313 -0.053719 0.091809 -0.0384 0.10107 0.02982 -0.145 2.4761 -0.06528 -0.0968 0.19457 0.098008 0.28686 -0.066501 0.011532 1.5293 -0.32719 0.012908 0.0099999 -0.43923 -0.23211 0.1846 0.3309 0.16866 -0.071984 -0.099056 -0.50183 -0.25436 0.11615 -0.11674 -0.043314 0.18031 -0.23395 -0.12992 0.30007 -0.024202 0.034616 -0.20059 0.19056 0.21255 -0.029538 0.21031 -0.22001 0.29806 0.24688 -0.52147 0.069593 -0.10185 0.17879 -0.077127 -0.064231 0.03848 0.3798 -0.19113 0.0040228 0.14555 -0.42353 0.053325 0.16815 0.022948 0.027069 0.33083 -0.098233 0.077669 -0.14186 -0.041861 -0.037727 -0.019747 -0.18607 -0.06292 -0.016625 0.048316 0.18666 0.13045 -0.027408 -0.3074 -0.016056 -0.081316 -0.099859 0.45048 -0.48359 -0.084283 -0.0030354 -0.61718 -0.67434 -0.2983 -0.21631 0.035686 -0.058028 0.39896 -0.12794 0.47793 0.21312 -0.0084883 0.22557 0.13491 0.036708 0.0035947 0.095947 -0.35288 -0.0046355 0.36855 0.11565 -1.1521 0.12001 -0.21212 -0.069652 0.11798 0.098792 0.11693 -0.12463 0.27854 -0.1365 -0.33296 -0.13913 0.062554 -0.089367 0.16928 -0.16878 -0.30581 0.081941 0.18959 0.12163 0.08839 0.15522 -0.19161 0.28207 -0.11358 0.41396 -0.28465 -0.26989 -0.040275 0.025853 0.50998 0.14193 -0.041189 0.36663 -0.096709 -0.42085 -0.13667 -0.42328 0.15382 0.25014 -0.038324 -0.0044331 0.1737 0.12906 0.04143 0.012923 0.13544 -0.29642 0.19251 0.090272 -0.084138 -0.067191 0.06379 -0.16662 -0.33766 -0.084599 -0.38389 0.35662 0.11553 -0.21919 -0.088353 0.17224 0.15892 0.25554 0.21111 0.069724 -0.01148 0.30153 -0.15678 -0.13286 0.06844 0.038408 0.16462 -0.0090285 0.26199 -0.21941 0.019501 0.49998 0.22318 -0.14034 0.069044 -0.32204 0.059212 -0.09368 0.075918 -0.092144 -0.29493 -0.30945 0.23604 0.44258 0.16508 -0.18181 -0.031404 -0.31564 -0.022376 0.16711 0.19087 0.018864 -0.19355 0.46059 0.082352 0.15645 0.088288 -0.19081 0.14703 0.0028821 0.077234 -0.46848 -0.16614 -0.30378 0.081421 0.11517 0.16591 0.1743 -0.028381 0.055913 -0.29174 -0.08225 0.21201 -0.064321 0.11984 0.16926 0.081893 -0.10804 0.0297 0.057771 0.11775 -0.20965 0.14688 0.082504 0.13868 -0.41961 -0.017025 -0.20262 0.15939 0.013081 0.27965 0.20448 0.26069 0.12828 -0.0854 0.042654 0.13463 -0.15029 -0.28527 -0.17786 0.086522 0.22967 -0.01329 0.056882 0.23558 0.41425 -0.020629 0.23496 0.046926 0.4383 -0.014621 -0.23162 0.41981 0.022075 0.19833 0.22828 -0.0050896 0.76826 0.068837 0.040325 0.28697 -0.11906 -0.25594 0.068302 0.051743 -0.10365 0.35236 -0.23796 0.35028 0.35013 0.49837 -0.23185 -0.14065 -0.19328 -0.0011063 0.27739 0.044895 0.34761 0.34719 -0.53473 0.45286 -0.24035 -0.2538 -0.049484 -0.17828 0.0095773 -0.29506 -0.14919 -0.23116
happy 0.036775 0.40917 -0.52141 -0.067184 0.087702 -0.048564 0.40947 -0.42818 0.19304 2.3925 -0.11441 -0.22952 -0.16061 0.035533 -0.53179 0.19764 -0.48827 0.57439 -0.064301 0.47053 -0.29647 -0.15927 -0.052798 0.10121 -0.054461 0.036129 -0.16118 -0.34139 0.45834 -0.20144 -0.29067 -0.51888 -0.062106 0.14084 0.016413 0.050826 0.13243 -0.033663 -0.42228 -0.30086 0.06202 0.26338 0.077223 0.27307 0.13392 0.30183 -0.16546 0.057011 -0.0034585 -0.071113 -0.27287 -0.10297 0.07457 -0.32104 0.36696 0.27051 -0.15776 0.2978 -0.18988 0.097477 0.035665 -0.49749 -0.52759 -0.046148 0.021715 -0.11047 -0.18007 0.20295 0.15254 -0.045976 -0.21846 -0.066865 -0.21355 0.017509 0.66474 0.25527 0.24864 -0.094851 -0.012857 0.46896 0.052031 0.62488 -0.12662 0.063972 -0.15719 -0.45907 0.32286 -0.17502 0.64181 0.091587 -0.075871 0.11718 -0.13864 0.24951 -0.40664 0.08845 -0.29196 -0.51624 -0.074847 -0.012822 -0.088844 -0.19935 0.052734 -0.13588 0.231 -0.34368 0.30607 -0.21223 0.08178 0.10097 0.33585 -0.17491 0.019115 0.15998 0.38803 -0.35932 0.31682 -0.18614 0.11732 -0.068517 0.50785 -0.0035486 0.20069 0.25218 0.38309 0.19359 0.43857 -0.29954 -0.14219 0.087962 -0.14229 0.10075 -0.58986 -0.12672 0.036944 -0.050421 -0.19875 -0.051368 -0.023402 0.08744 -2.4938 0.15427 0.12373 -0.0086429 -0.17007 -0.519 -0.29962 0.24369 -0.20535 -0.24942 -0.079362 0.40986 -0.10753 0.098907 -0.063449 0.05373 0.26206 0.13207 -0.067694 -0.56168 -0.18867 0.14453 -0.22469 -0.28404 0.20909 -0.46989 0.30992 -0.13283 0.041392 0.11146 0.17015 -0.059407 -0.16098 -0.2211 -0.0035877 -0.22357 -0.01852 -0.23026 -0.18824 0.32997 0.16287 -0.52067 0.17308 -0.024264 -0.041321 -0.3241 -0.44122 -0.11114 0.22684 -0.10883 -0.1278 -0.16696 0.051048 -0.12131 0.18038 0.19793 0.134 -0.37113 0.36008 0.092685 -0.30263 0.16565 -0.10863 -0.29565 0.26143 0.13369 -0.090181 0.021989 -0.093353 -0.20325 -0.2008 0.20721 0.17208 -0.20199 0.043315 0.17768 0.57448 -0.45917 -0.077197 0.12051 0.07209 -0.095313 0.10973 0.22375 0.045804 -0.13573 0.14041 -0.11364 -0.46605 -0.43262 -0.058678 0.19043 -0.40867 0.30509 0.18542 0.095309 -0.42329 -0.15225 -0.13827 0.18119 0.14755 -0.053628 0.031298 0.65695 -0.1717 0.23649 -0.34742 -0.17438 -0.085304 0.37687 0.21322 -0.13184 -0.35197 -0.14072 0.2332 0.21014 -0.14763 0.047515 -0.27979 0.090331 -0.15565 0.42803 -0.019297 0.012198 0.036031 -0.10396 0.11014 0.13458 0.2775 0.36225 -0.35591 -0.16877 -0.41201 0.070133 -0.27769 0.13739 -0.057831 0.19277 0.11131 0.53696 0.0093424 -0.26107 -0.38663 0.040653 0.18617 0.26312 0.12212 -0.030012 0.096286 0.47376 -0.21633 0.10798 -0.17703 0.22116 0.6726 0.065036 -0.017414 -0.048585 -0.090863 0.28591
girl -0.26909 0.25307 -0.57593 0.16235 0.16094 -0.19802 -0.028971 -0.25352 -0.074811 2.1331 -0.4646 0.056153 -0.50651 -0.44885 -0.47379 0.44561 -0.12656 0.6442 0.16048 0.34406 0.11782 -0.54542 -0.39005 -0.17133 -0.10692 0.40355 0.14711 -0.21785 0.2327 0.0042617 -0.18534 0.064222 0.28307 -0.0046408 0.6736 -0.12961 0.036804 -0.29297 -0.10704 -0.10144 0.36363 -0.34643 0.089158 -0.33299 -0.14088 -0.0011175 -0.15586 -0.092016 0.20663 -0.71369 -0.42443 -0.20274 -0.49529 -0.14574 -0.12492 0.48865 0.091048 -0.048057 0.21768 0.013217 -0.12011 -0.38334 -0.079559 -0.24453 -0.20607 -0.16878 -0.13342 0.45845 0.041422 0.20499 -0.33955 0.17824 -0.35252 0.10304 0.35595 0.19855 -0.45609 -0.05178 0.055408 -0.059262 0.30413 0.12991 -0.25488 0.3627 -0.043209 0.23285 1.2294 0.11799 0.0046054 0.0077812 -0.21193 0.24265 -0.20021 -0.56427 -0.2822 -0.4604 -0.079735 0.03376 -0.14892 0.1484 0.54642 0.57023 0.055902 -0.13657 0.23033 0.22807 -0.64512 -0.10182 0.068341 -0.3179 0.12691 -0.011262 -0.57404 -0.28038 -0.14787 -0.11296 0.38612 0.26175 -0.095176 -0.071672 -0.042501 -0.32317 0.17194 -0.30685 0.081819 0.56033 -0.078356 -0.17296 -0.13717 0.12221 0.18733 -0.15872 -0.31311 0.13497 0.59967 -0.36567 -0.3422 0.38889 0.084099 0.23086 -3.6435 -0.21372 0.014358 -0.283 -0.31654 -0.30101 -0.16488 0.035519 -0.29371 -0.10814 -0.50092 0.29186 -0.24973 -0.13276 0.073195 -0.055337 -0.050897 -0.2664 -0.097223 -0.35488 -0.19095 -0.13013 0.11006 0.083209 -0.31144 -0.4389 0.17464 -0.052185 0.24667 0.4934 -0.16702 -0.13543 0.40953 -0.35136 -0.036243 -0.22589 -0.86225 0.40991 -0.64399 0.39345 -0.35752 0.34495 0.15168 -0.30971 -0.092843 0.42582 -0.46271 0.48269 0.12593 -0.25813 -0.22849 -0.18986 -0.1417 0.021845 0.077441 -0.32888 0.0046039 -0.025013 -0.15104 -0.0076992 0.1568 0.26785 -0.32104 -0.17154 -0.44894 0.15063 0.0068067 0.14818 0.14068 0.12737 -0.71748 -0.20078 -0.37893 -0.26166 0.1778 -0.042052 -0.51617 -0.20675 0.19628 -0.32059 -0.1623 -0.34745 0.035163 -0.069429 -0.25188 -0.018092 0.40608 0.14913 0.15859 -0.044722 -0.30193 0.011825 0.15602 -0.015593 -0.096849 -0.2208 -0.041823 0.45651 0.014732 -0.18996 -0.64075 0.2811 0.29593 -0.24946 0.34825 -0.29148 -0.61145 0.038674 0.30281 0.21332 -0.15786 0.41419 0.46804 0.074988 0.040826 0.19257 -0.16069 -0.27996 -0.075286 -0.056603 -0.17315 0.60683 -0.51229 -0.13542 0.065854 0.33613 -0.018186 0.39413 -0.74138 -0.035554 -1.3326 0.11044 -0.60748 0.19463 0.029874 -0.033861 -0.040727 0.1192 0.37909 0.43656 -0.099922 0.36707 -0.013175 -0.27368 -0.17171 0.29368 -0.023312 0.25316 -0.068967 -0.40257 0.091683 -0.10386 0.41797 -0.2361 -0.0332 -0.18152 -0.41914 -0.23858 0.15172 0.13429
woman 0.025567 0.27885 -0.16992 0.27348 -0.054906 0.26873 0.15479 -0.22401 0.26404 3.2573 -0.36653 0.14961 -0.2687 -0.31193 -0.50554 -0.018622 -0.53002 0.62383 0.20168 0.21561 -0.19996 -0.33419 -0.09523 -0.25538 0.21543 0.10939 0.41532 0.15005 0.39662 -0.25728 -0.46104 0.29125 -0.10363 -0.16447 0.93747 -0.045412 0.27272 -0.71627 -0.38877 0.16912 0.43804 -0.22131 0.20337 -0.36581 -0.036242 -0.21563 -0.11942 -0.2958 0.34733 -0.016351 -0.7916 -0.24388 -0.4822 -0.45474 0.21058 0.63894 0.088826 -0.22047 -0.059894 -0.42726 -0.099469 -0.52176 0.04698 0.32228 -0.10954 -0.25837 0.10217 0.090491 0.18292 0.38789 -0.43365 -0.24162 -0.43422 0.22077 0.50189 0.0090415 -0.29682 -0.52089 0.055734 -0.039163 -0.0043091 -0.064597 -0.25508 -0.035399 -0.20516 -0.11271 0.87014 0.060037 -0.24875 -0.51786 -0.10997 0.38666 -0.20147 -0.17448 -0.06624 -0.86425 -0.062866 0.15059 -0.045898 -0.29925 0.49547 0.85508 0.50861 -0.039749 0.1383 -0.43328 -0.82351 0.14587 -0.025802 0.021241 0.41686 0.13879 -0.28574 -0.11489 0.014417 -0.10605 0.092083 0.16331 0.51418 0.26796 -0.30879 -0.15634 0.23043 -0.19157 0.002062 0.071663 -0.15257 0.0089785 -0.12435 0.11599 -0.23492 -0.16969 -0.51814 -0.33792 0.34203 -0.2027 -0.30722 0.24821 -0.21101 0.16024 -2.2108 -0.033644 0.15281 -0.091025 -0.53468 -0.19606 -0.10073 -0.14763 -0.37963 -0.1147 -0.772 0.0034073 -0.43319 -0.1926 -0.28495 0.1182 -0.073914 -0.44934 0.15063 0.075852 -0.35571 -0.22156 0.015631 0.54899 0.27738 -0.34669 -0.046663 0.20436 0.031897 0.49289 -0.51963 -0.15231 0.47612 -0.050498 -0.47795 -0.21124 -0.61119 -0.035826 -0.52109 0.39765 -0.32262 0.34586 -0.03695 -0.30117 -0.18839 0.74328 -0.4694 0.22037 -0.063876 -0.42307 -0.3098 -0.092729 -0.14554 -0.045225 0.5211 0.035251 -0.16337 -0.20276 -0.054362 -0.17507 0.46784 0.28518 -0.24753 -0.38146 -0.65522 0.28048 -0.22469 0.031348 -0.037321 -0.12925 -0.35847 -0.63603 -0.5849 0.017119 0.30965 -0.39587 -0.63493 -0.014329 0.35014 -0.56452 -0.19727 -0.28897 0.0533 0.082705 -0.025107 -0.40928 0.45675 0.36729 0.055723 -0.0391 -0.047065 0.14521 0.28315 -0.077514 -0.24889 -0.21624 0.032185 0.29615 -0.044788 -0.078702 -0.29525 0.11738 0.39822 -0.77722 0.37586 -0.083447 -0.1307 -0.097301 0.53456 -0.056583 -0.20945 0.31246 0.5118 -0.052732 -0.24482 0.35617 0.55137 -0.16055 0.088772 0.20303 -0.063832 0.52 -0.026473 -0.21467 0.1176 0.2508 0.27871 0.31016 -0.88719 0.018565 -0.90917 -0.3264 -0.46293 0.36726 -0.11205 0.32701 -0.3649 0.079312 0.22619 0.52265 0.046024 0.45068 0.14493 -0.33406 -0.38688 0.025465 -0.49985 0.054518 0.12466 0.012283 0.075499 -0.13099 0.19764 -0.6531 -0.27553 -0.0051765 -0.16025 -0.018582 -0.10128 -0.34728
write -0.082114 0.32495 -0.60418 0.11985 0.06437 0.44119 0.34485 -0.54674 0.070348 1.9377 -0.33834 0.048147 -0.22974 -0.15514 -0.42505 -0.16982 0.11952 1.1401 -0.50351 -0.024573 0.23172 0.24191 0.14286 0.014039 0.086599 0.26038 0.18318 -0.36571 0.33801 -0.2722 -0.096839 0.24044 -0.027737 -0.19473 -0.085396 0.13561 0.01489 0.2204 -0.10754 -0.36894 -0.26841 0.11439 -0.42709 -0.57868 -0.24282 -0.12955 0.48574 0.44416 0.51103 0.046428 -0.45501 0.18923 0.13586 0.016221 0.14549 -0.017646 -0.34805 -0.21814 0.062444 -0.17226 -0.24889 -0.03874 -0.48086 0.0098774 0.53498 0.0099817 -0.010706 0.28535 0.66346 0.6857 0.33756 -0.34669 0.16458 -0.45938 0.20029 0.48199 -0.15155 -0.1626 -0.29727 0.29893 -0.35426 -0.21033 -0.49716 -0.091171 -0.17342 -0.24909 -0.16852 -0.6685 0.61554 -0.12319 -1.2268 -0.35906 -0.35954 0.20172 -0.049878 0.02715 -0.091333 -0.11187 0.14371 -0.68348 0.35452 -0.56731 0.28138 0.15497 0.25329 -0.52677 0.43359 -0.16498 0.059499 -0.20758 0.34164 -0.0086018 0.50044 0.28564 -0.30781 -0.30729 -0.69289 -0.046799 -0.47625 0.10462 0.38131 -0.82156 0.066566 0.46037 0.60305 0.54438 -0.28237 0.022131 0.013444 0.098096 -0.090623 0.20432 -0.094463 0.43656 0.034209 0.15152 0.026206 -0.11328 -0.0013054 0.13986 -1.319 -0.10834 -0.14129 0.1171 -0.017113 -0.2566 -0.28295 -0.22299 -0.1556 0.28255 0.41763 0.45801 -0.035715 0.13232 0.025869 -0.38446 0.11464 -0.48819 0.3687 -0.36223 0.081825 -0.24362 -0.14601 0.11595 -0.28795 -0.24499 -0.1121 -0.38741 0.14914 -0.32999 -0.17437 0.17311 0.18065 -0.63557 0.313 0.25832 -0.066746 -0.22858 -0.079965 -0.32371 0.57208 -0.24812 0.28038 -0.24698 0.46766 0.1616 -0.32197 0.1062 0.036542 0.25215 -0.16715 0.31275 -0.37337 0.13878 0.037339 -0.28608 -0.07843 -0.54327 0.23448 -0.11905 0.1801 -0.38762 0.041174 -0.12634 0.30757 -0.1373 0.098537 -0.089145 0.30238 0.047166 0.29858 0.036793 -0.21334 -0.46218 0.20326 0.12469 -0.038051 -0.096086 -0.34535 -0.049767 0.13634 -0.016596 0.63635 0.22323 -0.18082 -0.024983 -0.4027 -0.51119 0.01781 -0.32599 -0.15614 0.45872 0.23974 0.34883 -0.69635 -0.31198 0.034621 0.12678 -0.27238 0.25984 0.040347 -0.26423 0.52344 0.018574 0.47037 -0.31833 0.2083 -0.037304 -0.1458 -0.13041 -0.02599 -0.090114 -0.32718 -0.10203 0.24615 0.15144 -0.16914 -0.45956 -0.38815 0.35897 0.031162 0.37255 -0.033214 0.27019 0.41933 0.13515 -0.13822 0.40007 1.1528 0.17596 0.038119 -0.56308 -0.024414 0.29075 0.011413 0.003311 -0.10253 -0.099914 -0.20773 -0.18366 0.22319 -0.027249 0.31008 -0.0040548 -0.15654 -0.18376 0.11288 -0.2472 -0.064495 -0.033559 -0.2997 0.082 -0.089712 0.21988 0.20964 -0.37767 0.0146 -0.31536 -0.026735 0.010663
son -0.10434 -0.050899 -0.57032 0.17441 0.3786 -0.61087 0.44934 -1.0064 0.11231 3.1026 -0.52898 0.93475 0.037713 0.37432 -0.97803 -0.36663 -0.090478 -0.20744 0.10145 0.39093 -0.10032 -0.93966 -0.6333 0.36697 -0.04334 -0.26297 0.1616 0.47771 0.075511 0.30059 0.044554 -0.11195 0.55094 -0.11672 0.19861 -0.27718 0.19304 -0.37373 0.36676 -0.54542 -0.3351 -0.40393 -0.13777 -0.23811 0.15663 -0.079884 -0.082111 -0.094652 0.62578 0.39824 0.25183 -0.32588 0.26895 0.35762 -0.25335 0.55431 -0.20244 0.29816 0.11314 0.018163 0.48428 0.18336 0.38631 0.30096 0.42527 0.146 0.39841 -0.4687 0.34013 0.12128 -0.72875 0.049677 -0.86451 0.094581 0.003891 -0.021864 0.33166 0.15183 0.14817 -0.70004 0.047967 0.042923 -0.31101 0.16728 -0.032318 -0.71957 0.76471 -1.1509 0.095597 -0.1456 -0.14205 -0.021283 -0.012267 -0.10158 0.26407 -0.4361 0.38114 -0.29624 0.33979 0.43129 0.011499 0.53272 -0.29189 -0.42039 -0.57302 0.27257 -0.091598 0.25868 1.158 -0.015489 -0.40546 -0.052578 -0.36353 0.23544 0.4212 -0.17132 0.26368 -0.14163 0.02704 0.061556 0.020748 -0.2929 -0.20195 0.48306 0.16831 0.315 0.021438 -0.42581 0.2314 -0.53139 -0.1923 0.16051 0.012259 -0.3891 0.10538 -0.20344 -0.25264 0.88887 -0.1329 0.58715 -2.1539 -0.30701 0.46021 0.34513 0.029919 0.4119 0.12386 -0.15234 -0.17414 -0.56938 -0.1143 0.034861 -0.039559 -0.46915 0.18157 -0.18696 -0.34771 -0.43579 -0.23836 -0.69665 0.21668 -0.41794 0.087557 -0.33364 -0.099948 0.05169 -0.16897 0.1964 0.43739 0.22845 -0.54836 -0.33759 0.52864 0.30289 0.085885 -0.54449 -0.45465 0.086834 -0.33135 -0.18521 0.32704 -0.45447 0.29209 -0.34253 0.0055468 0.27018 0.28896 0.53933 -0.57582 -0.48412 -0.27378 -0.15121 -0.98131 0.16033 -0.044566 -0.34042 0.17576 -0.39117 0.19567 -0.46387 0.027603 0.49305 -0.34497 -0.34203 -0.32114 -0.12084 0.017201 -0.46826 -0.61141 -0.28945 -0.40062 -0.29019 -0.48113 0.52528 0.17381 -0.63403 0.28522 0.30197 0.24757 -0.040935 0.054462 -0.41955 -0.0674 0.33469 0.51014 0.68694 0.30087 -0.019899 -0.73001 0.11797 -0.40836 -0.60939 -0.2837 -0.24094 -0.078808 -0.53412 0.15648 0.7498 -0.22787 0.29051 0.44363 0.24755 -0.059257 0.29018 0.14747 0.48372 0.036036 -0.21098 -0.034788 0.12456 -0.065374 0.28947 0.28539 0.57242 0.26775 -0.013091 -0.32083 0.26806 0.12811 0.0060507 0.39187 0.16281 -0.43816 0.084556 -0.23936 0.23656 -0.58529 0.014781 -0.83715 -0.27816 0.43373 0.32301 -0.19117 -0.24503 -0.37971 -0.29952 -0.22747 0.071522 0.14942 -0.053366 0.0044902 0.29743 -0.2334 -0.014507 0.09361 0.49623 0.31375 -0.17143 -0.60716 -0.42077 0.25636 -0.0013102 -0.33544 0.43217 0.83818 0.39372 0.10078 0.054328 0.1001 -0.22003
dog -0.40176 0.37057 0.021281 -0.34125 0.049538 0.2944 -0.17376 -0.27982 0.067622 2.1693 -0.62691 0.29106 -0.6727 0.23319 -0.34264 0.18311 0.50226 1.0689 0.14698 -0.4523 -0.41827 -0.15967 0.26748 -0.48867 0.36462 -0.043403 -0.24474 -0.41752 0.089088 -0.25552 -0.55695 0.12243 -0.083526 0.55095 0.3641 0.15361 0.55738 -0.90702 -0.049098 0.3858 0.38 0.14425 -0.27221 -0.37016 -0.12904 -0.15085 -0.38076 0.049583 0.12755 -0.082788 0.14339 0.32537 0.27226 0.43632 -0.31769 0.79405 0.26529 0.10135 -0.33279 0.43117 0.16687 0.10729 0.089418 0.28635 0.40117 -0.39222 0.45217 0.13521 -0.28878 -0.022819 -0.34975 -0.22996 0.20224 -0.21177 0.27184 0.091703 -0.2061 -0.65758 0.18949 -0.26756 0.092639 0.43316 -0.48868 -0.38309 -0.2191 -0.44183 0.98044 0.67423 0.84003 -0.18169 0.17385 0.41848 0.16098 -0.1049 -0.41965 -0.3566 -0.16837 -0.63458 0.38422 -0.35043 0.17486 0.53528 0.20143 0.037877 0.47105 -0.44344 0.1684 -0.16685 -0.24022 -0.10077 0.30334 0.4273 0.33803 -0.43481 0.11343 0.061958 0.061808 -0.14007 0.082018 -0.03913 0.051442 0.28725 0.58025 -0.57641 -0.34652 0.10132 0.14463 0.011569 -0.33701 -0.17586 -0.35724 -0.21423 0.011429 0.47645 -0.037463 -0.29488 -0.17465 0.30255 0.60317 -0.06679 -2.705 -0.70308 0.40548 0.62874 0.6308 -0.54513 -0.0096191 0.26533 0.23391 -0.051886 -0.0065759 0.018573 -0.45693 -0.070351 -0.30621 -0.014018 -0.20408 0.371 -0.32354 -0.84646 0.27092 -0.11961 -0.095576 -0.60464 0.042409 0.24656 0.038445 -0.025467 -0.092908 -0.21356 0.3612 0.019113 0.062741 -0.13083 -0.0015146 0.58238 -0.18956 0.78105 0.010477 1.0928 0.1014 -0.36248 -0.11962 -0.34462 -0.55704 0.25797 0.33356 0.33194 -0.31298 -0.75547 -0.7529 -0.093072 -0.11173 -0.57251 0.16639 0.63579 0.24006 -0.29211 0.90182 0.12425 -0.57751 0.047986 -0.42748 0.24446 0.047232 0.35694 0.44241 -0.23055 0.66037 -0.0073983 -0.37857 0.22759 -0.37138 0.31055 -0.072105 -0.2449 -0.039761 0.5365 -0.41478 0.16563 0.33707 0.1092 0.37219 -0.55727 -0.7806 0.14251 -0.35828 0.41638 0.21446 0.1841 -0.47704 -0.022005 -0.23634 -0.2284 0.34722 0.23667 0.074249 -0.088416 0.28618 -0.46942 -0.43914 -0.26474 -0.3069 -0.1526 -0.08487 0.2841 -0.18481 -0.22122 -0.11169 -0.025241 0.045968 0.035343 0.22467 0.51556 -0.00065137 0.099559 -0.14215 0.20136 0.28334 -0.28772 0.037766 -0.37608 -0.11681 -0.6702 -0.046265 0.38784 -0.032295 -0.054291 -0.45384 0.19552 -0.2947 0.85009 0.10345 0.09701 0.11339 0.39502 0.059043 0.21978 0.18845 -0.15891 -0.10301 0.33164 0.061477 -0.29848 0.4451 0.47329 0.26312 -0.18495 0.14652 -0.03151 0.022908 -0.25929 -0.30862 0.0017545 -0.18962 0.54789 0.31194 0.24693 0.29929 -0.074861
walk 0.82737 -0.28522 -0.45855 0.055542 0.53668 -0.0032239 -0.40379 0.10691 -0.0010172 2.7567 -0.53619 -0.11667 -0.046361 0.14982 -0.53722 0.6959 -0.23288 0.71306 -0.48735 0.068546 0.019149 0.43429 0.14164 -0.092838 0.17986 0.081904 0.61775 -0.48264 0.12548 -0.099459 0.2126 -0.044862 -0.27197 0.12141 0.24657 -0.019395 0.64488 -0.1477 -0.13479 0.36593 0.047371 -0.28551 -0.41318 0.12271 -0.019826 0.34925 -0.62307 -0.26154 -0.37913 0.0037365 -0.082416 -0.34151 0.61024 0.31503 0.69902 -0.015209 -0.30015 0.18622 -0.38325 0.36062 -0.13977 0.16124 -0.31997 -0.11624 -0.19632 -0.31167 -0.19292 0.019261 0.48122 0.8619 0.068769 0.019547 0.24651 0.078873 0.14286 -0.44769 0.52132 -0.024088 0.032813 -0.45172 0.22923 0.027362 -0.026424 -0.17394 -0.40317 0.39749 0.2933 0.12135 -0.053218 -0.34569 0.049885 0.32191 0.048543 -0.56373 0.0092836 -0.19099 0.35096 -0.010328 0.10216 0.091715 0.2425 -0.08392 -0.38135 0.0076439 -0.031676 -0.2803 0.22796 0.28824 0.27986 -0.10463 0.61567 -0.20944 0.20409 -0.16006 0.29165 0.30915 -0.095684 0.061271 -0.41297 0.25153 0.089451 -0.34918 0.081434 0.0076689 -0.022085 -0.41988 -0.23358 0.065789 0.12715 -0.35929 0.20424 0.29329 0.22053 0.27673 -0.15593 -0.1933 0.54624 0.20537 0.20825 -0.37054 -2.0167 -0.12723 -0.44006 -0.25096 0.39151 -0.00034352 -0.05046 0.13519 0.17409 -0.058901 -0.43822 -0.036022 0.071293 0.033505 -0.21301 -0.24605 -0.14871 -0.11246 -0.22203 -0.34055 -0.21707 -0.27724 -0.59739 0.41337 0.6769 0.12855 0.011281 -0.03521 -0.25326 0.3009 0.098788 -0.30737 -0.25072 -0.37008 -0.30647 0.21203 -0.43869 0.28041 -0.061969 -0.030708 0.2404 -0.17314 -0.32927 -0.20303 0.30031 0.24555 0.31418 -0.029415 0.55122 0.56902 -0.59098 -0.096508 -0.31615 -0.12866 0.32684 0.35729 0.18017 -0.35288 0.16572 0.41296 -0.47214 0.28585 -0.32331 0.19796 0.025406 0.39933 0.65261 -0.4311 0.19388 -0.5862 0.097446 -0.51058 -0.046865 0.015503 0.24177 -0.0136 0.16033 -0.094782 0.19184 0.6665 0.28591 -0.2561 0.076732 -0.2246 -0.23192 -0.55666 -0.27261 -0.29477 -0.24508 0.11002 0.22689 0.24686 0.61798 0.45319 0.058323 0.0191 0.28398 -0.50671 -0.68244 0.59061 -0.26938 -0.1941 -0.48646 0.35727 -0.38193 -0.12264 -0.35351 0.089547 -0.49647 -0.0037357 -0.19405 -0.19914 0.13585 0.61271 0.20321 0.78978 0.22784 -0.50428 -0.33024 -0.11277 -0.29736 0.19237 0.63469 -0.45185 0.40607 -0.25945 0.55039 0.18051 -0.41891 0.33849 -0.40457 -0.35107 0.27247 0.0098707 -0.002811 0.35951 0.17385 -0.2698 -0.090866 0.29114 0.56088 0.028283 -0.053445 0.60918 -0.17772 -0.16339 0.01316 -0.23222 0.39701 0.090965 0.18132 0.17549 -0.033761 0.13256 -0.011831 0.1276 0.86474 0.56832 0.048395 0.17262
eat -0.11216 -0.24393 -0.089555 -0.27334 -0.2346 0.7245 -0.13555 -0.22179 -0.12443 2.1582 -0.74218 0.20429 -0.16771 0.32534 -0.25833 -0.083299 -0.24797 0.9916 -0.46402 0.33211 0.2713 0.087884 -0.39411 -0.43591 -0.41899 -0.3122 0.0080665 -0.48099 0.040399 -0.54912 -0.51648 0.065157 0.0072044 -0.22849 0.32267 0.23647 0.46056 0.13271 -0.21545 0.6554 -0.60524 -0.24769 -0.37913 0.14196 0.17504 0.37996 -0.4145 0.32476 0.17145 0.26198 -0.63799 0.097533 0.25043 -0.41799 0.89226 -0.21751 -0.34542 0.092076 0.2851 0.22323 0.16446 -0.29845 0.14169 -0.1011 0.24613 -1.176 -0.051133 0.073051 0.20224 0.35731 -0.14099 0.48983 0.17071 -0.67022 -0.038304 -0.0044463 -0.18485 -0.13185 0.14671 -0.19228 0.50352 -0.33281 -0.154 -0.71391 -0.055288 -0.46843 1.0256 -0.094011 -0.21789 0.086434 -0.34902 -0.10035 -0.078742 -0.24537 -0.16746 0.39918 -0.14672 -0.5038 0.30038 0.063296 -0.22725 0.32026 0.41776 0.27121 -0.40005 -0.6639 1.063 0.0076925 0.17235 0.27864 0.5431 -0.51987 -0.30594 -0.011784 0.22686 -0.42782 -0.1948 -0.54189 -0.22199 0.02648 0.023021 -0.53401 0.25069 -0.46099 0.19681 -0.70283 0.39539 -0.075595 -0.013888 -0.018859 0.13111 -0.35158 0.29665 0.35702 -0.12394 -0.42145 0.26368 -0.040416 -0.15447 -0.15209 -2.6122 -0.12035 0.12571 0.21148 0.30105 -0.62968 -0.20929 0.1967 -0.17817 -0.19014 -0.085347 0.51397 0.5433 0.038379 -0.014296 -0.35519 0.26484 -0.48992 0.10029 -0.012578 -0.28873 -0.18568 -0.36598 -0.11325 -0.044622 0.13858 0.52163 -0.19414 0.24428 0.090429 0.20232 -0.39281 -0.15133 -0.29997 -0.5311 0.24377 0.048478 0.064421 -0.12659 -0.28381 0.25246 -0.91307 -0.39973 0.04801 0.1652 -0.27328 -0.085077 0.017747 0.44367 -0.37073 0.058131 -0.14354 -0.45516 -0.4853 -0.2586 0.335 -0.01193 0.32318 0.49057 -0.11132 -0.41907 0.29378 0.067595 -0.42553 0.38379 0.19934 -0.13492 0.2235 0.85113 -0.27616 -0.047012 0.32509 -0.2276 -0.1208 -0.20615 -0.31556 0.06076 -0.24717 0.10083 0.21769 0.17294 -0.2591 0.01686 -0.26883 0.095698 0.0049112 -0.41221 0.11609 -0.14164 -0.026725 -0.23784 -0.15463 0.33387 -0.0030163 0.16741 0.30749 0.20412 -0.36411 -0.25471 -0.0079446 -0.038732 -0.015794 -0.36701 0.16728 0.16521 -0.058311 -0.05458 -0.30163 -0.84269 0.40701 -0.0010635 0.35876 -0.050147 0.27346 0.36424 0.75421 0.12336 0.0466 -0.12852 -0.16011 -0.37007 -0.2343 -0.0051762 -0.16918 0.31135 0.25814 -0.45328 -0.16358 -0.54506 0.42417 0.18394 -0.13642 0.48238 -0.1784 0.053407 0.33841 -0.076634 0.89373 -0.071969 1.09 0.38777 0.08286 -0.077111 -0.62513 0.0061513 0.26769 0.60483 -0.45988 -0.044601 0.55852 0.2135 0.010475 -0.8829 -0.32374 -0.37131 0.48692 0.11826 -0.60373 0.6168 -0.036204
star 0.44581 0.2305 0.077434 -0.10145 0.49246 -0.55001 -0.0208 -0.24442 -0.052061 2.0611 -0.037488 -0.61058 -0.17151 -0.22025 -0.085697 -0.16796 0.22962 0.24984 0.14492 -0.30199 -0.2777 -0.41334 -0.22832 0.31872 -0.28322 0.24593 -0.87186 -0.24716 0.17945 0.24452 -0.1024 0.27415 0.17806 0.10143 0.14561 0.23775 -0.10163 -0.22554 -0.10475 -0.01916 0.0094155 -0.063543 0.1799 0.30831 -0.26526 -0.35428 0.067153 0.020261 -0.60308 -0.36842 0.38502 -0.36639 0.47278 -0.61808 -0.092694 -0.17201 -0.18496 0.111 0.10086 -0.2389 0.36231 -0.38932 0.47583 -0.40431 -0.017483 -0.0327 0.19143 0.30695 0.17567 0.34992 0.29927 -0.66438 -0.4878 -0.022626 -0.90719 -0.28672 -0.64206 -0.22601 0.92232 -0.12653 -0.63882 0.10047 -0.1091 0.70807 0.41447 -0.065939 0.28076 0.30815 0.049365 -0.14362 -0.055674 0.054566 -0.62702 -0.13406 0.03766 -0.80514 -0.21721 0.02626 -0.32159 -0.16917 -0.3167 0.25443 -0.22221 -0.15994 -0.017451 0.21428 -0.13828 -0.0035779 0.20598 -0.38227 -0.68199 0.28873 -0.13297 0.29293 0.66788 0.21581 0.043356 0.86777 -0.16513 -0.23976 -0.48763 0.38843 0.035527 -0.30792 -0.06497 0.014194 -0.033356 0.79071 0.051465 -0.17005 0.07078 0.37788 0.33755 -0.47673 0.26108 -0.91541 0.12984 0.036219 0.47401 -0.57058 -2.5464 0.036461 0.17558 -0.15397 -0.27755 -0.36169 0.48557 0.16664 0.96691 -0.47392 0.64175 -0.02333 0.016604 0.044952 -0.29504 -0.034495 0.25768 -0.088855 -0.0076035 0.30473 0.45534 -0.24164 -0.085133 -0.56006 0.37891 -0.095477 -0.034813 -0.19016 0.1306 -0.0058449 -0.096884 -0.44804 -0.26765 -0.29886 0.21013 -0.048079 0.16452 0.38963 -0.068371 -0.035042 0.17672 0.506 -0.26091 -0.088239 -0.27316 0.13876 -0.81009 0.32419 -0.2956 -0.14876 -0.29295 -0.2227 -0.42666 0.23598 -0.088917 -1.0178 -0.39063 0.25108 -0.15475 0.26409 -0.29695 -0.5526 0.17002 0.49197 -0.19022 0.25645 0.088076 0.39416 -0.80715 -0.22365 -0.0861 0.11114 -0.30707 -0.15001 -0.31166 0.71209 0.25691 -0.29317 0.08463 -0.3326 -0.27618 -0.15631 -0.028162 0.1591 0.50638 0.15931 0.1102 -0.042408 0.12659 0.78161 0.075387 0.39694 0.51414 0.46859 -0.13684 -0.38036 -0.045677 0.79226 -0.4786 0.15572 0.28328 -0.24957 0.43455 0.006422 0.27821 0.35605 -0.21119 -0.1427 0.23151 -0.032636 0.25624 0.39828 0.44186 -0.19743 -0.4098 0.24286 0.44193 0.12184 -0.17461 -0.25297 -9.9933e-05 0.11675 0.27397 0.1215 -0.17678 -0.07855 0.12247 0.1627 -0.68925 -0.47155 -1.0001 0.12259 0.41522 0.10394 -0.052401 0.17461 -0.39594 -0.12489 -0.50964 0.51399 -0.073072 0.27418 0.15666 -0.018013 -0.27 -0.068567 -0.28196 -0.08039 0.24447 -0.039279 0.22261 0.65729 0.19383 0.3217 0.2433 0.10243 -0.29164 -0.2548 0.13228 0.65461
daughter -0.079268 0.18933 -0.45242 0.37298 0.2592 -0.39937 0.36279 -0.87065 -0.019528 3.1104 -0.36732 0.90774 -0.18414 0.27097 -0.97081 -0.24073 -0.27872 -0.39325 -0.10565 0.27926 0.028852 -0.4824 -0.57914 0.25263 0.10658 0.10126 -0.016018 0.043861 -0.056469 0.21526 -0.035257 0.18925 0.64849 -0.15476 0.37552 -0.030821 0.6759 -0.37217 0.17476 -0.45974 0.25498 -0.34738 -0.17517 -0.43726 0.04913 -0.082318 -0.30982 -0.1935 0.64781 -0.13211 0.049169 -0.31657 -0.20399 0.043421 -0.10425 0.24296 -0.30328 0.14955 -0.16931 0.13964 0.4886 0.017186 0.36707 0.20392 0.055285 -0.017593 0.17796 0.18435 0.69155 0.038413 -0.34694 0.042996 -0.78884 0.12337 0.32578 0.42745 0.0056578 0.30914 -0.056074 -0.98115 0.031538 0.15427 -0.38517 0.036026 0.10223 -0.69725 1.0046 -0.52998 0.026642 0.012038 -0.25087 0.48659 -0.14728 -0.13191 0.075772 -0.66513 0.32222 0.2864 0.21947 0.2056 0.33552 0.098349 0.016567 -0.61356 -0.52617 0.2025 -0.28763 0.077957 0.5348 -0.42573 -0.14873 0.35949 -0.27447 0.16322 0.32613 -0.59175 0.13251 0.10358 0.24822 0.14925 -0.059076 -0.25502 0.20713 -0.17427 0.31382 0.50296 -0.16277 -0.5182 0.0095572 -0.10273 -0.31074 0.21439 -0.21028 -0.12973 -0.028011 -0.51219 -0.39269 1.0021 8.6793e-06 0.45445 -2.0031 -0.24899 0.15857 0.070321 -0.2431 0.058967 -0.3839 -0.086443 -0.21855 -0.46771 -0.086883 0.2723 -0.04193 -0.28204 -0.003066 -0.25998 -0.064932 -0.54593 -0.35776 -0.89674 -0.074066 -0.18579 -0.048502 -0.13413 -0.13217 -0.23212 0.13789 0.20719 0.90986 0.10035 -0.22534 -0.24797 0.60053 0.30795 0.076549 -0.57005 -0.65259 -0.20185 -0.38668 0.16332 0.32243 -0.22059 0.099736 0.0069442 0.15395 0.34615 -0.058252 0.36548 -0.71319 -0.27192 -0.21308 -0.30931 -0.62898 0.070943 -0.078021 -0.21958 0.053298 0.033141 0.018297 -0.39878 -0.19872 0.13751 -0.049308 -0.35473 -0.26726 0.16596 -0.0725 -0.35878 -0.22131 -0.38822 -0.77406 -0.29698 -0.44387 0.15544 0.20005 -0.46384 -0.028903 -0.24411 0.089694 -0.13037 -0.12355 -0.64623 0.2135 -0.13357 0.0068451 0.26442 0.41635 -0.082222 -0.3851 -0.14635 -0.33063 -0.4627 -0.011423 0.21 0.16666 -0.60767 0.27516 0.50272 -0.27687 -0.028576 -0.15487 0.22825 -0.018116 0.22086 0.38486 -0.073183 -0.2716 0.05283 0.027923 0.051664 -0.17727 0.53459 0.33568 -0.12382 0.052601 -0.14774 -0.27673 -0.016805 -0.2073 0.27744 0.031726 0.30627 -0.37525 0.10883 -0.19133 0.27115 -0.3842 0.1863 -0.97617 -0.54534 -0.17771 0.22458 -0.25324 -0.20527 -0.20338 -0.20347 -0.18709 0.13114 -0.17714 -0.00052387 0.44209 0.64868 0.063054 -0.23211 -0.050676 0.53129 0.16541 0.14113 -0.28674 -0.0096545 0.36751 0.17142 -0.021888 0.63884 0.42927 0.14333 0.014651 -0.03984 0.24695 -0.11625
boy -0.27045 0.071814 -0.37339 0.064434 0.20281 -0.19224 -0.044159 -0.50268 0.057192 2.4062 -0.4266 -0.012857 -0.36779 -0.26895 -0.70937 0.32086 0.2402 0.20586 0.3856 0.21784 -0.069397 -0.9772 -0.11972 0.035963 -0.063122 -0.15404 0.12987 0.038105 0.36596 0.042266 -0.57266 0.0072247 0.282 -0.08114 0.4344 -0.1728 -0.07379 -0.023957 0.282 -0.045053 0.077679 -0.44776 -0.098858 -0.37854 0.029747 0.13359 0.26457 -0.15714 0.060119 -0.41122 -0.0953 -0.24766 -0.20774 0.23677 0.021845 0.56465 0.14718 0.22277 0.28203 -0.38639 0.10314 0.22699 0.072355 -0.33058 -0.086814 -0.19646 -0.205 -0.045256 -0.25982 0.01024 -0.48494 -0.011256 -0.12921 0.0089836 0.14966 0.084855 -0.21558 0.047115 0.24903 -0.18355 0.26616 0.5144 -0.037282 0.18694 0.057465 -0.022328 1.189 -0.3318 -0.021588 0.14711 -0.25367 0.083064 -0.061545 -0.35962 -0.32351 -0.53503 -0.19876 -0.36213 0.17307 0.16683 0.25978 0.35439 -0.0060846 0.032761 0.101 0.16862 -0.50326 -0.0017049 0.72867 -0.087315 0.31823 -0.029366 -0.374 -0.046628 0.026655 0.26131 0.31274 0.034865 -0.27957 -0.0071097 -0.036602 -0.35304 0.24526 0.043528 0.082801 0.35174 -0.065473 -0.34133 -0.20457 0.0962 0.2314 -0.16058 -0.026324 0.016702 0.5824 0.09675 0.13182 0.33185 0.087949 0.12203 -3.2772 -0.03644 -0.049433 0.036941 -0.17229 -0.0083707 0.078416 0.23862 -0.074671 -0.3903 -0.2279 0.12371 -0.33024 -0.18696 0.15142 -0.073203 -0.51204 -0.17374 -0.096278 -0.44095 -0.14644 -0.18002 -0.23029 -0.29987 -0.31303 -0.30463 0.020741 -0.08941 0.10786 0.25043 -0.41303 0.035758 0.06331 -0.54162 -0.1463 -0.33661 -0.41284 0.51574 -0.31078 0.16037 -0.3487 0.020067 0.22489 -0.17664 -0.34176 0.43792 -0.076876 0.55996 -0.048502 -0.66694 -0.29888 -0.16016 -0.60854 0.085317 -0.072336 -0.45764 0.16943 -0.14895 -0.12133 -0.093667 0.023923 0.18322 -0.45378 -0.33792 -0.20077 0.21682 -0.051261 -0.14851 -0.16655 0.12602 -0.37027 -0.12916 -0.45191 -0.052875 0.44321 -0.039962 0.0048399 0.089029 0.17662 -0.3027 0.10084 -0.1818 -0.037691 -0.052181 -0.077144 0.24325 0.053663 0.46339 0.18349 0.40759 -0.22374 0.086047 0.020109 0.093794 -0.16008 -0.32857 0.052315 0.43734 0.12915 0.067257 -0.4376 0.099238 0.057914 -0.19036 0.19031 0.43149 -0.33097 -0.04275 0.16887 0.23577 -0.088764 0.24161 0.3029 0.43632 0.52616 0.072091 -0.23152 -0.50809 0.087914 0.064713 -0.070679 0.35069 -0.5715 -0.29326 -0.28096 0.58809 -0.26761 0.11169 -0.645 0.099885 -0.57477 0.08824 -0.42967 0.28174 -0.40059 -0.22774 0.17216 -0.0022872 0.2786 -0.056959 -0.47135 0.063359 -0.29965 0.024272 0.21161 0.30577 -0.14386 -0.046602 -0.42288 -0.54183 -0.20708 -0.083934 -0.017639 -0.12408 0.14506 0.19354 -0.12174 0.15332 -0.061871 0.11502
science -0.3603 0.036893 0.21941 -0.099548 -0.07464 0.39272 -0.71837 0.24464 -0.088964 2.4763 -0.54853 -0.052036 0.14768 0.49527 -0.17954 0.20575 0.24663 1.4013 -0.48001 -0.38316 0.52198 -0.12928 0.062019 0.1548 0.56934 -0.3026 0.10634 0.26798 -0.0051659 0.34128 -0.52146 0.24627 0.42073 -0.013535 0.73479 -0.039933 -0.011757 0.40327 -0.14134 0.19437 0.39649 -0.13376 -0.40484 0.32088 0.2518 0.076694 0.094249 -0.11245 -0.21022 -0.50867 0.44607 -0.0075964 0.29939 -0.25602 -0.50274 -0.41465 0.22768 -0.41404 -0.16366 -0.13608 -0.13307 -0.053627 0.62552 -0.073778 0.48966 -0.24253 -0.38385 -0.20156 0.043211 0.016572 -0.21803 -0.6149 -0.1315 -0.24474 -0.025167 0.65707 -0.095978 0.45935 0.1101 0.8239 -0.52218 -0.68328 0.25383 0.38977 0.25374 -0.92286 -1.283 -0.10855 -0.52049 0.13286 -0.25398 0.051866 -0.49461 -0.16515 -0.22692 -0.36744 0.14451 0.35044 -0.026213 -0.17611 0.047645 -0.15554 0.17882 0.16802 0.068002 -1.5011 -0.19661 0.081641 -0.064759 -0.054262 0.11862 0.17008 -0.094114 -1.0587 0.028446 0.5394 -0.42058 -0.11745 0.34082 -0.2325 0.53523 -0.14242 0.18311 0.25294 0.37254 0.68514 0.19549 0.36213 0.63849 0.087757 0.19779 -0.16197 0.045851 -0.52041 0.052955 -0.14642 -0.14673 -0.009517 0.35062 0.050627 -0.68578 -0.11213 0.34631 0.38368 0.28359 -0.31045 -0.23938 -0.40919 -0.62944 -0.095835 0.44405 -0.43962 0.078801 0.42571 0.20976 0.065733 -0.15277 -0.90189 0.31689 0.33731 0.90652 -0.59745 0.26792 0.07048 -0.31768 0.1078 -0.25492 -0.5692 0.16735 0.097226 0.073922 -0.11768 0.17289 -0.49097 0.20582 -0.017098 0.13766 0.080877 -0.014878 -0.48219 0.18154 0.31158 0.49131 0.047461 0.20959 -0.17905 -0.04475 0.13173 0.38842 -0.019604 -0.31393 -0.36506 -0.65681 0.046491 -0.4172 0.27897 0.13164 -0.17303 0.7463 0.091398 -0.52191 0.0024694 0.15099 0.54087 -0.15279 0.047377 0.010102 0.2549 0.45261 -0.00055536 -0.49474 -0.014781 0.2927 -1.1192 -0.50434 -0.41196 -0.27408 0.3021 -0.28968 -0.18409 -0.27783 -0.16132 -0.34228 -0.56827 0.78474 0.21584 -0.17312 -0.17983 0.38934 0.3811 -0.24654 0.23866 -0.35739 -0.49134 -0.37996 0.08018 -0.5115 0.27952 -0.095099 0.21199 -0.15794 -0.74861 -0.64536 -0.13789 0.052847 0.14087 -0.70385 -0.1579 -0.2118 0.010944 0.30777 0.060693 -0.15124 -0.34807 0.73388 -0.41446 -0.31412 0.044759 0.13446 -0.33184 0.26226 0.35356 -0.30004 0.28373 0.56391 -0.51395 -0.33578 0.027544 0.65633 -0.026583 -1.0377 0.13228 0.015099 0.056454 0.0086147 0.0054601 -0.13493 -0.24708 -0.45862 -0.04951 -0.15387 -0.37809 -0.2286 0.042497 -0.26729 -0.33294 0.2491 -0.23316 -0.59566 0.010306 0.29487 0.074849 0.092992 0.088193 0.12973 -0.18639 0.14099 0.16527 -0.24393 -0.08718
speak -0.21072 0.19431 -0.32145 0.49984 0.61131 -0.23494 0.1561 -0.26796 -0.38323 3.1397 0.094834 -0.16074 -0.13916 -0.46654 -0.26012 0.2522 -0.22586 0.20769 -0.29356 -0.19744 0.12402 0.012226 0.22822 0.073572 0.056496 -0.24857 -0.22573 0.083962 0.1709 -0.36027 -0.21363 0.28008 -0.15769 -0.13699 0.10919 0.3486 0.18163 0.13245 -0.28453 0.060073 -0.022966 -0.57305 -0.30773 -0.23293 0.21724 0.20835 0.35099 -0.25392 0.30628 0.12108 -0.35714 0.45167 -0.21299 -0.36657 0.25064 0.25834 -0.56788 0.12056 -0.22208 -0.19016 0.08488 -0.12206 -0.31578 0.18005 0.009407 -0.0085728 0.041645 0.040994 0.49413 0.57317 -0.20856 -0.15995 0.036554 -0.60937 -0.21158 0.18483 0.066125 -0.07529 -0.0028306 0.38647 -0.0097775 -0.043121 -0.4848 -0.18566 -0.13493 -0.36824 -0.45737 -0.59343 0.072679 -0.32994 -0.012584 -0.61023 -0.27554 0.10133 0.068134 -0.065332 -0.1558 -0.46626 0.011122 -0.40486 0.18585 0.031839 0.21097 -0.0055329 0.28623 -0.71469 0.34162 -0.044122 -0.1848 0.16443 -0.086652 -0.35482 0.15916 0.070808 0.32919 -0.22215 -0.021368 -0.28501 -0.05907 0.19074 -0.07004 -0.42434 0.093237 0.091224 0.45511 -0.17546 0.17931 0.1198 -0.18935 -0.050346 0.11087 -0.085459 -0.17007 0.24924 -0.012341 -0.080931 0.41517 -0.062998 0.12586 0.1239 -1.1658 -0.15805 -0.3095 0.17997 0.39663 0.23142 -0.15571 0.34756 -0.69933 -0.093747 0.010327 0.032345 -0.32122 -0.063569 0.062772 -0.17582 0.237 -0.72856 0.18405 -0.17538 -0.0017193 -0.37123 -0.13321 0.07602 0.14185 -0.012885 0.071042 -0.26497 -0.47227 -0.03698 -0.28585 0.020675 0.62373 -0.27828 -0.036529 0.25342 0.058175 0.24998 0.038439 -0.13227 0.11841 -0.10439 0.3125 -0.4025 0.12019 0.14349 -0.36949 -0.094734 0.64533 0.37681 0.041298 -0.35007 -0.012776 -0.1541 -0.32885 0.24578 0.14469 -0.38451 0.039471 0.19149 0.12792 0.68448 -0.005409 -0.395 0.026946 0.22096 0.043358 -0.12312 0.36511 0.35094 -0.10541 -0.4892 0.35923 0.12459 0.63277 0.25156 0.021414 -0.16241 -0.26178 0.03462 0.18431 -0.28014 0.19482 0.014707 -0.13112 -0.069485 0.2924 -0.25863 -0.046777 -0.27074 -0.27544 -0.46712 0.13039 0.29563 -0.42183 0.23529 -0.036515 -0.10123 0.032536 -0.1693 0.099014 0.019522 0.033607 -0.81339 0.54512 -0.33035 0.10031 -0.21305 -0.19998 0.088533 0.3879 0.22049 -0.31913 0.10791 -0.21088 0.24302 0.20337 -0.03158 -0.27644 0.23581 -0.097998 0.21319 0.054937 0.12081 0.20165 -0.24532 -0.016533 0.27215 0.48863 0.62693 -0.16887 0.20016 -0.031736 0.26141 -0.023099 0.20872 -0.039751 0.043232 -0.065906 -0.2022 0.040862 0.3343 0.26244 -0.44339 -0.35074 -0.22612 0.26354 0.18249 -0.16981 0.27942 0.1769 -0.27547 -0.34626 -0.029795 0.10297 0.26872 0.028883 0.17164 0.26006 0.17373
